<?xml version="1.0"?>
<opencv_storage>
<opencv_ml_svm>
  <format>3</format>
  <svmType>C_SVC</svmType>
  <kernel>
    <type>RBF</type>
    <gamma>1.0000000000000001e-05</gamma></kernel>
  <C>5.0000000000000000e-01</C>
  <term_criteria><epsilon>1.1920928955078125e-07</epsilon>
    <iterations>1000</iterations></term_criteria>
  <var_count>2</var_count>
  <class_count>2</class_count>
  <class_labels type_id="opencv-matrix">
    <rows>2</rows>
    <cols>1</cols>
    <dt>i</dt>
    <data>
      0 1</data></class_labels>
  <sv_total>9</sv_total>
  <support_vectors>
    <_>
      100. 10.</_>
    <_>
      150. 10.</_>
    <_>
      600. 10.</_>
    <_>
      10. 100.</_>
    <_>
      455. 10.</_>
    <_>
      345. 255.</_>
    <_>
      10. 501.</_>
    <_>
      401. 255.</_>
    <_>
      30. 150.</_></support_vectors>
  <decision_functions>
    <_>
      <sv_count>9</sv_count>
      <rho>3.4083398241149482e-01</rho>
      <alpha>
        5.0000000000000000e-01 5.0000000000000000e-01
        3.8569611574930857e-01 5.0000000000000000e-01
        -1.6001898187804989e-01 -5.0000000000000000e-01
        -5.0000000000000000e-01 -5.0000000000000000e-01
        -2.2567713387125862e-01</alpha>
      <index>
        0 1 3 8 2 4 5 6 7</index></_></decision_functions></opencv_ml_svm>
</opencv_storage>
