%YAML:1.0
---
opencv_ml_svm:
   format: 3
   svmType: C_SVC
   kernel:
      type: RBF
      gamma: 3.3750000000000002e-02
   C: 1.2500000000000000e+01
   term_criteria: { epsilon:1.1920928955078125e-07, iterations:1000 }
   var_count: 144
   class_count: 10
   class_labels: !!opencv-matrix
      rows: 10
      cols: 1
      dt: i
      data: [ 0, 1, 2, 3, 4, 5, 6, 7, 8, 9 ]
   sv_total: 914
   support_vectors:
      - [ 5.25416672e-01, 5.25416672e-01, 5.25416672e-01, 3.73889953e-01,
          8.75088107e-03, 0., 0., 0., 1.63384140e-01, 6.55341923e-01,
          6.55341923e-01, 1.13052249e-01, 2.73247734e-02, 3.43512255e-03,
          0., 1.79006588e-02, 8.90209153e-03, 3.47235382e-01,
          4.84160393e-01, 4.84160393e-01, 1.62797764e-01, 9.73307341e-02,
          5.84257506e-02, 1.82844012e-03, 1.34632394e-01, 4.84160393e-01,
          4.84160393e-01, 2.11829439e-01, 5.14982641e-02, 3.27002443e-02,
          1.37793468e-02, 7.75367394e-02, 2.40068778e-01, 5.42265832e-01,
          5.42265832e-01, 5.42265832e-01, 1.41531497e-01, 4.29402024e-01,
          4.29402024e-01, 4.29402024e-01, 4.29402024e-01, 3.93267125e-01,
          2.87926883e-01, 2.09792461e-02, 1.15778735e-02, 3.72309059e-01,
          3.72309059e-01, 3.63762975e-01, 3.72309059e-01, 3.72309059e-01,
          3.72309059e-01, 2.32906789e-01, 9.89928320e-02, 3.26866180e-01,
          3.33110750e-01, 3.33110750e-01, 3.30105245e-01, 3.33110750e-01,
          3.33110750e-01, 3.33110750e-01, 3.33110750e-01, 3.33110750e-01,
          3.33110750e-01, 3.05746626e-02, 6.59916252e-02, 1.39126942e-01,
          2.70328462e-01, 4.78904247e-01, 4.78904247e-01, 4.78904247e-01,
          4.48919296e-01, 8.89771655e-02, 5.59679372e-03, 8.52413476e-03,
          6.13716580e-02, 1.47439510e-01, 3.09350818e-01, 6.14130735e-01,
          6.14130735e-01, 3.41468245e-01, 4.05921862e-02, 5.95543832e-02,
          1.62307128e-01, 3.76601100e-01, 3.76601100e-01, 3.76601100e-01,
          3.76601100e-01, 3.76601100e-01, 3.76601100e-01, 3.39671582e-01,
          2.98286200e-01, 3.86170685e-01, 3.86170685e-01, 3.53388965e-01,
          3.57468456e-01, 1.37750387e-01, 1.97518185e-01, 3.86170685e-01,
          3.86170685e-01, 1.34887900e-02, 4.94046748e-01, 4.94046748e-01,
          4.94046748e-01, 4.94046748e-01, 1.31467536e-01, 1.58888530e-02,
          2.64926739e-02, 1.78021435e-02, 8.28516707e-02, 0., 0.,
          4.55870386e-03, 1.20137997e-01, 3.16845298e-01, 6.00447118e-01,
          6.00447118e-01, 3.88872474e-01, 1.32309318e-01, 1.15847995e-03,
          0., 3.26617956e-02, 7.14577883e-02, 1.58689126e-01,
          5.61406434e-01, 5.61406434e-01, 5.61406434e-01, 3.20731133e-01,
          4.69572216e-01, 4.69572216e-01, 8.13555345e-03, 4.50186012e-03,
          6.03022613e-03, 1.01618595e-01, 4.69572216e-01, 4.69572216e-01,
          8.82633552e-02, 7.00576007e-01, 7.00576007e-01, 4.18051109e-02,
          4.19591293e-02, 0., 0., 4.46169311e-03, 8.64162203e-03 ]
      - [ 4.96778637e-01, 4.96778637e-01, 4.96778637e-01, 0.,
          2.40474474e-02, 0., 0., 8.54636580e-02, 4.96778637e-01,
          5.54604769e-01, 5.54604769e-01, 1.98519722e-01, 0., 0., 0.,
          3.31558404e-03, 1.79669529e-01, 5.54604769e-01, 5.63982368e-01,
          5.63982368e-01, 4.61329147e-02, 0., 0., 2.53299121e-02,
          5.02050146e-02, 1.86680183e-01, 5.63982368e-01, 4.16437447e-01,
          1.04807187e-02, 0., 0., 1.99423004e-02, 4.53195781e-01,
          4.53195781e-01, 4.53195781e-01, 4.53195781e-01, 1.50418609e-01,
          4.75457668e-01, 4.75457668e-01, 4.75457668e-01, 4.75457668e-01,
          2.21574470e-01, 6.36335695e-04, 3.39090452e-02, 1.34684101e-01,
          4.68606919e-01, 4.68606919e-01, 4.68606919e-01, 2.94215143e-01,
          9.02840123e-02, 4.75369766e-02, 5.51215895e-02, 1.30144894e-01,
          4.68606919e-01, 4.56383228e-01, 4.56383228e-01, 1.67211011e-01,
          7.08700940e-02, 1.72628865e-01, 1.65459871e-01, 3.84955496e-01,
          3.63639712e-01, 4.56383228e-01, 5.11515103e-02, 5.43324575e-02,
          6.91985786e-02, 2.18208045e-01, 5.06889999e-01, 5.06889999e-01,
          5.06889999e-01, 2.60270268e-01, 3.13707978e-01, 1.38119180e-02,
          1.02467574e-01, 7.83412829e-02, 2.36826599e-01, 4.30173129e-01,
          4.30173129e-01, 4.30173129e-01, 4.30173129e-01, 4.27308619e-01,
          3.55122387e-01, 2.32591033e-01, 3.89763087e-01, 3.43620926e-01,
          2.59815484e-01, 2.00643688e-01, 3.66486758e-01, 3.89763087e-01,
          3.89763087e-01, 4.97675568e-01, 4.97675568e-01, 3.73165280e-01,
          1.30862460e-01, 1.71047568e-01, 6.09576963e-02, 1.03621155e-01,
          2.27813363e-01, 4.97675568e-01, 4.29430306e-01, 4.29430306e-01,
          4.29430306e-01, 4.29430306e-01, 4.29430306e-01, 1.92479908e-01,
          1.87856048e-01, 1.42584285e-02, 3.34169976e-02, 2.80774236e-01,
          2.21825987e-02, 7.26058008e-03, 0., 1.20121084e-01,
          4.05024230e-01, 4.95713770e-01, 4.95713770e-01, 4.95713770e-01,
          5.58463871e-01, 1.23531157e-02, 4.27452195e-03, 0.,
          2.73071099e-02, 1.68451313e-02, 2.39952475e-01, 5.58463871e-01,
          5.58463871e-01, 5.40919840e-01, 5.40919840e-01, 2.93628454e-01,
          0., 0., 1.98088353e-03, 1.26247797e-02, 1.74454004e-01,
          5.40919840e-01, 5.27501762e-01, 5.27501762e-01, 4.27530557e-01,
          4.20607418e-01, 1.05754644e-01, 1.58028379e-02, 1.34540061e-02,
          2.93792575e-03, 2.58649290e-01 ]
      - [ 5.62475502e-01, 5.62475502e-01, 3.22831511e-01, 0.,
          1.17835924e-02, 0., 0., 0., 5.07214844e-01, 6.25934899e-01,
          4.30722207e-01, 1.56954363e-01, 0., 0., 0., 0., 2.25436757e-03,
          6.25934899e-01, 5.56483626e-01, 1.99072771e-02, 1.60443280e-02,
          0., 0., 0., 2.54493773e-01, 5.56483626e-01, 5.56483626e-01,
          4.00763810e-01, 0., 0., 0., 0., 0., 5.27295768e-01,
          5.27295768e-01, 5.27295768e-01, 4.87327963e-01, 4.87327963e-01,
          4.87327963e-01, 4.87327963e-01, 1.70020461e-01, 5.01744971e-02,
          3.83442342e-02, 2.44512782e-02, 1.08101860e-01, 5.50059497e-01,
          5.50059497e-01, 2.94225216e-01, 1.25923511e-02, 0., 0., 0.,
          9.14186146e-03, 5.50059497e-01, 4.89420414e-01, 1.01592571e-01,
          1.13367252e-01, 1.02107242e-01, 5.78881763e-02, 5.67577081e-03,
          4.89420414e-01, 4.89420414e-01, 4.89420414e-01, 3.35133485e-02,
          1.03990264e-01, 1.26644850e-01, 2.91583121e-01, 4.34433311e-01,
          4.34433311e-01, 4.34433311e-01, 4.34433311e-01, 3.57399344e-01,
          3.49150002e-01, 3.49150002e-01, 3.49150002e-01, 3.49150002e-01,
          1.45828456e-01, 3.49150002e-01, 3.49150002e-01, 3.49150002e-01,
          3.49150002e-01, 6.10756099e-01, 2.84974188e-01, 1.59656525e-01,
          1.11972481e-01, 0., 3.64711136e-02, 1.67536095e-01,
          3.14990044e-01, 6.10756099e-01, 4.85398144e-01, 4.85398144e-01,
          4.85398144e-01, 1.60446003e-01, 6.83613792e-02, 4.41059750e-03,
          9.71213505e-02, 1.63342044e-01, 4.70923692e-01, 9.88964662e-02,
          4.77299988e-01, 4.77299988e-01, 4.77299988e-01, 4.77299988e-01,
          1.78393885e-01, 1.79200321e-01, 8.30456242e-02, 5.79437576e-02,
          4.45304453e-01, 5.37725389e-02, 1.86586902e-02, 2.01247744e-02,
          2.06678286e-02, 4.45304453e-01, 4.45304453e-01, 4.45304453e-01,
          4.45304453e-01, 6.22173011e-01, 6.66023865e-02, 5.36696725e-02,
          5.63837625e-02, 0., 2.49333736e-02, 1.07905567e-01,
          4.43654031e-01, 6.22173011e-01, 5.13182402e-01, 5.13182402e-01,
          4.50959921e-01, 3.44315730e-02, 0., 0., 8.38613138e-03,
          1.36209363e-02, 5.13182402e-01, 5.74379444e-01, 5.74379444e-01,
          5.74379444e-01, 2.66836714e-02, 1.99026205e-02, 0., 0., 0.,
          5.84900007e-02 ]
      - [ 5.74527323e-01, 5.74958384e-01, 5.74958384e-01, 0.,
          1.33807594e-02, 0., 0., 0., 5.33269756e-02, 5.63891709e-01,
          5.63891709e-01, 2.01115832e-01, 0., 0., 0., 0., 0.,
          5.63891709e-01, 5.14925003e-01, 1.88828140e-01, 0., 0.,
          9.84510873e-04, 1.63666550e-02, 4.04337883e-01, 5.14925003e-01,
          5.14925003e-01, 8.72547999e-02, 0., 0., 0., 5.80246672e-02,
          5.01781762e-01, 5.56049049e-01, 5.56049049e-01, 3.36602330e-01,
          4.92236838e-02, 5.31328619e-01, 5.31328619e-01, 5.31328619e-01,
          3.57110232e-01, 1.30911753e-01, 2.10611019e-02, 0.,
          1.52093498e-02, 4.84461367e-01, 4.84461367e-01, 4.84461367e-01,
          1.14454299e-01, 7.51758665e-02, 2.88399477e-02, 1.39918700e-01,
          2.17829108e-01, 4.52153891e-01, 4.68610615e-01, 2.10474566e-01,
          5.61026437e-03, 4.65640053e-02, 9.10814852e-02, 2.49280259e-01,
          4.68610615e-01, 4.68610615e-01, 4.68610615e-01, 3.02942400e-03,
          1.58790294e-02, 4.77792993e-02, 1.20993577e-01, 4.95005667e-01,
          4.95005667e-01, 4.95005667e-01, 4.92053479e-01, 2.57701930e-02,
          1.70601174e-01, 9.82079133e-02, 2.35979840e-01, 3.90694618e-01,
          3.90694618e-01, 3.90694618e-01, 3.90694618e-01, 3.90694618e-01,
          3.72088015e-01, 3.85719031e-01, 2.25482374e-01, 1.08347140e-01,
          3.21615279e-01, 4.03456360e-01, 1.73390865e-01, 4.03456360e-01,
          4.03456360e-01, 4.03456360e-01, 4.06330675e-01, 2.71045297e-01,
          4.03213829e-01, 2.80399650e-01, 1.12944581e-01, 8.99717435e-02,
          4.06330675e-01, 4.06330675e-01, 4.06330675e-01, 1.41949654e-01,
          4.34530556e-01, 4.34530556e-01, 4.34530556e-01, 4.34530556e-01,
          3.82078737e-01, 2.65149146e-01, 2.71163210e-02, 5.67364618e-02,
          2.98433304e-01, 8.67949203e-02, 0., 0., 1.29921615e-01,
          2.04081953e-01, 5.29021680e-01, 5.29021680e-01, 5.29021680e-01,
          4.37204272e-01, 4.37204272e-01, 2.14911669e-01, 1.13327451e-01,
          1.68786600e-01, 6.15616925e-02, 3.73809546e-01, 4.37204272e-01,
          4.37204272e-01, 4.83664960e-01, 4.83664960e-01, 2.11143628e-01,
          2.07908954e-02, 0., 0., 1.20117076e-01, 4.83664960e-01,
          4.83664960e-01, 5.15361249e-01, 5.15361249e-01, 5.15361249e-01,
          3.21901560e-01, 1.12763844e-01, 0., 0., 2.45489851e-02,
          2.84820348e-01 ]
      - [ 4.30423804e-02, 5.14422119e-01, 5.14422119e-01, 4.39644575e-01,
          5.14422119e-01, 1.08283693e-02, 0., 2.67630070e-02,
          7.07008988e-02, 4.93252248e-01, 4.93252248e-01, 4.93252248e-01,
          1.84878066e-01, 1.92001164e-01, 9.78835858e-03, 4.26872633e-02,
          9.63006169e-02, 4.27719623e-01, 4.30800915e-01, 2.40162596e-01,
          2.22557470e-01, 7.93290697e-03, 3.84586602e-02, 2.12287918e-01,
          4.67590302e-01, 4.67590302e-01, 4.67590302e-01, 1.10300686e-02,
          0., 0., 0., 4.89816189e-01, 4.89816189e-01, 4.89816189e-01,
          4.89816189e-01, 1.87900409e-01, 1.36750480e-02, 3.67779553e-01,
          4.29983824e-01, 5.45443714e-01, 5.45443714e-01, 9.89734903e-02,
          8.96808412e-03, 2.17363507e-01, 1.48584589e-01, 1.59849048e-01,
          3.96984071e-01, 3.96984071e-01, 3.96984071e-01, 3.96984071e-01,
          3.96984071e-01, 1.75765634e-01, 3.35554630e-01, 1.97510004e-01,
          1.18131943e-01, 1.77360117e-01, 2.81647295e-01, 3.94486576e-01,
          3.94486576e-01, 3.94486576e-01, 3.94486576e-01, 3.94486576e-01,
          3.05325806e-01, 1.91878472e-02, 1.38280809e-01, 1.29212022e-01,
          4.22490865e-01, 4.89281476e-01, 4.89281476e-01, 4.64187860e-01,
          1.98350087e-01, 2.16387019e-01, 1.64445362e-03, 8.40651020e-02,
          7.87598267e-02, 2.19341353e-01, 5.14776528e-01, 5.14776528e-01,
          5.14776528e-01, 3.70250642e-01, 3.74861993e-02, 1.10267416e-01,
          4.29508835e-01, 2.10325345e-01, 9.14277732e-02, 4.29508835e-01,
          4.29508835e-01, 4.29508835e-01, 4.29508835e-01, 9.25499201e-02,
          1.95881054e-02, 3.09059322e-01, 5.43561518e-01, 5.43561518e-01,
          5.43561518e-01, 7.29600042e-02, 8.07874948e-02, 1.31780421e-02,
          1.64253972e-02, 1.81950082e-03, 2.53035009e-01, 5.50226390e-01,
          5.50226390e-01, 5.50226390e-01, 1.48485303e-01, 1.32685117e-02,
          1.97683577e-04, 2.03764252e-03, 1.67680252e-03, 0., 0., 0.,
          4.97205824e-01, 4.97205824e-01, 4.97205824e-01, 4.97205824e-01,
          7.85922930e-02, 3.39377701e-01, 2.31808156e-01, 1.42886862e-01,
          5.35903033e-04, 1.32813126e-01, 4.20963079e-01, 5.26476562e-01,
          5.26476562e-01, 2.37083554e-01, 4.13786262e-01, 5.02141595e-01,
          5.02141595e-01, 4.25315470e-01, 1.10137679e-01, 1.14353271e-02,
          2.32192174e-01, 1.61587209e-01, 2.15164185e-01, 0.,
          1.53565437e-01, 5.68598151e-01, 5.68598151e-01, 5.68598151e-01,
          0., 0., 2.77904910e-03, 2.86453180e-02 ]
      - [ 4.57934201e-01, 4.97641295e-01, 4.97641295e-01, 4.97641295e-01,
          1.99584424e-01, 0., 0., 0., 5.05120605e-02, 4.96296018e-01,
          4.96296018e-01, 4.84017909e-01, 1.44810870e-01, 1.46770980e-02,
          2.88232649e-03, 2.41898559e-02, 7.84520619e-03, 4.96296018e-01,
          4.96872395e-01, 7.89763480e-02, 5.69843128e-03, 2.07958464e-03,
          6.04689540e-03, 3.46158855e-02, 4.96872395e-01, 4.96872395e-01,
          4.96872395e-01, 1.16659384e-02, 0., 0., 0., 1.61919191e-01,
          5.41877151e-01, 5.41877151e-01, 5.41877151e-01, 2.95537233e-01,
          2.99922228e-02, 2.43304491e-01, 5.56930244e-01, 5.56930244e-01,
          5.56930244e-01, 6.17065430e-02, 1.13899971e-03, 1.70189328e-03,
          4.02076310e-03, 3.72661233e-01, 3.72661233e-01, 3.72661233e-01,
          3.72661233e-01, 3.20688426e-01, 1.79464504e-01, 1.67242631e-01,
          3.72661233e-01, 3.72661233e-01, 2.03929737e-01, 1.01723000e-01,
          6.68027773e-02, 2.05568537e-01, 2.79534161e-01, 4.52406257e-01,
          4.52406257e-01, 4.52406257e-01, 4.52406257e-01, 0., 0., 0.,
          1.74101221e-03, 5.62811375e-01, 5.62811375e-01, 5.62811375e-01,
          2.08895788e-01, 2.16630176e-02, 5.65720499e-02, 1.47639558e-01,
          4.57188129e-01, 4.57188129e-01, 4.57188129e-01, 4.57188129e-01,
          2.19915152e-01, 2.92559266e-01, 1.99522637e-02, 4.07407284e-01,
          4.07407284e-01, 4.07407284e-01, 4.07407284e-01, 4.07407284e-01,
          3.62596989e-01, 1.88903231e-02, 6.89398274e-02, 1.71582326e-01,
          3.91494721e-01, 3.91494721e-01, 3.91494721e-01, 3.91494721e-01,
          3.91494721e-01, 3.53087097e-01, 2.90871292e-01, 1.21230036e-02,
          1.42564729e-01, 2.37603411e-02, 2.05504552e-01, 4.97786731e-01,
          4.97786731e-01, 4.97786731e-01, 4.25209135e-01, 1.67473316e-01,
          0., 2.57251668e-03, 3.69376034e-01, 2.07961738e-01,
          7.28289336e-02, 3.59340608e-01, 3.69376034e-01, 3.69376034e-01,
          3.69376034e-01, 3.69376034e-01, 3.69376034e-01, 3.56440276e-01,
          3.12300891e-01, 3.56440276e-01, 3.56440276e-01, 3.56440276e-01,
          3.56440276e-01, 9.77714732e-02, 3.56440276e-01, 3.56440276e-01,
          5.37330329e-01, 5.37330329e-01, 3.38311017e-01, 7.37759471e-02,
          4.22503687e-02, 1.95385013e-02, 2.60937586e-02, 7.56124631e-02,
          5.37330329e-01, 2.30591163e-01, 5.62084019e-01, 5.62084019e-01,
          4.15185750e-01, 3.69272083e-01, 0., 0., 0., 2.44283080e-02 ]
      - [ 6.21676445e-01, 6.21676445e-01, 4.09230024e-01, 2.05731541e-01,
          3.12475339e-02, 0., 0., 0., 1.00293346e-01, 5.06814301e-01,
          5.06814301e-01, 4.73600477e-01, 0., 0., 0., 0., 7.66550656e-03,
          5.06814301e-01, 5.30706346e-01, 3.68208379e-01, 5.71315847e-02,
          0., 5.19177224e-03, 1.86727680e-02, 1.02641106e-01,
          5.30706346e-01, 5.30706346e-01, 3.53209227e-01, 0., 0., 0.,
          1.89453214e-01, 4.32778686e-01, 4.64547545e-01, 4.64547545e-01,
          4.64547545e-01, 3.82353485e-01, 4.32761669e-01, 4.32761669e-01,
          4.32761669e-01, 4.32761669e-01, 1.01283118e-01, 2.03553617e-01,
          1.82543173e-01, 1.23846419e-01, 4.63744462e-01, 4.63744462e-01,
          4.63744462e-01, 4.25510585e-01, 1.28684297e-01, 1.28232107e-01,
          1.87919438e-01, 2.60665327e-01, 1.81297004e-01, 3.65263224e-01,
          3.65263224e-01, 3.63485664e-01, 1.15022473e-01, 3.65263224e-01,
          2.24711776e-01, 3.65263224e-01, 3.65263224e-01, 3.65263224e-01,
          1.34716220e-02, 7.00808875e-03, 1.61810830e-01, 3.61364424e-01,
          4.76437867e-01, 4.76437867e-01, 4.76437867e-01, 3.86038899e-01,
          9.07666758e-02, 6.31116703e-02, 2.44820621e-02, 1.66676268e-01,
          2.38095909e-01, 4.69082206e-01, 1.61583424e-01, 4.69082206e-01,
          4.69082206e-01, 4.69082206e-01, 1.31091177e-01, 1.62560627e-01,
          1.12407818e-01, 1.26280099e-01, 9.85036492e-02, 2.28773087e-01,
          5.35542905e-01, 5.35542905e-01, 5.35542905e-01, 4.36862200e-01,
          4.41287339e-01, 4.41287339e-01, 1.43567502e-01, 1.40313685e-01,
          2.57653780e-02, 1.65909559e-01, 4.41287339e-01, 3.89936596e-01,
          3.40144187e-02, 4.97988850e-01, 4.97988850e-01, 4.97988850e-01,
          4.97988850e-01, 4.13561054e-02, 1.21305985e-02, 1.81500823e-03,
          6.09206222e-03, 2.05895156e-01, 1.31049864e-02, 7.75069073e-02,
          8.31665769e-02, 4.84568357e-01, 2.11126674e-02, 4.84568357e-01,
          4.84568357e-01, 4.84568357e-01, 4.48116988e-01, 7.35431612e-02,
          6.86869994e-02, 7.68454522e-02, 4.43278760e-01, 2.05369927e-02,
          4.24438268e-01, 4.48116988e-01, 4.48116988e-01, 4.91582125e-01,
          4.91582125e-01, 3.31837118e-01, 5.73990233e-02, 2.42034525e-01,
          2.93811015e-03, 4.92360517e-02, 3.09365928e-01, 4.91582125e-01,
          4.06230539e-01, 4.06230539e-01, 4.06230539e-01, 2.55224288e-01,
          4.06230539e-01, 2.86732674e-01, 0., 1.53201282e-01,
          4.06230539e-01 ]
      - [ 5.69052160e-01, 5.69052160e-01, 5.69052160e-01, 1.38636589e-01,
          5.34058176e-02, 0., 0., 0., 2.80032270e-02, 6.09694719e-01,
          6.09694719e-01, 2.65205145e-01, 0., 0., 0., 0., 0.,
          4.24409449e-01, 4.94436949e-01, 4.63392586e-01, 5.87174017e-03,
          0., 0., 1.00269262e-02, 2.16311276e-01, 4.94436949e-01,
          4.94436949e-01, 1.86965227e-01, 0., 0., 0., 1.72360033e-01,
          3.87052059e-01, 5.10043383e-01, 5.10043383e-01, 5.10043383e-01,
          7.73963928e-02, 4.97129530e-01, 4.97129530e-01, 4.97129530e-01,
          4.97129530e-01, 8.04384146e-03, 0., 6.24992792e-03,
          1.97426975e-02, 5.54349840e-01, 5.54349840e-01, 5.54349840e-01,
          1.24077208e-01, 5.67833371e-02, 1.10036526e-02, 1.07123945e-02,
          4.68272977e-02, 2.26946384e-01, 3.64965647e-01, 3.64965647e-01,
          3.57389525e-02, 2.50353634e-01, 3.64965647e-01, 3.64965647e-01,
          3.64965647e-01, 3.64965647e-01, 3.64965647e-01, 3.72672430e-03,
          0., 1.18131630e-01, 4.78537172e-01, 4.78537172e-01,
          4.78537172e-01, 4.78537172e-01, 2.51551151e-01, 4.45220657e-02,
          1.61773711e-01, 4.25414182e-02, 2.66327471e-01, 5.50881207e-01,
          5.50881207e-01, 2.91882038e-01, 2.30353981e-01, 2.98338175e-01,
          2.47758061e-01, 2.50557303e-01, 4.04498503e-02, 7.44775683e-02,
          2.68642247e-01, 3.46076995e-01, 2.88669586e-01, 5.03266215e-01,
          5.03266215e-01, 3.78404379e-01, 3.19143564e-01, 4.48209673e-01,
          4.48209673e-01, 4.48209673e-01, 2.32524008e-01, 4.36856262e-02,
          2.51725107e-01, 1.61155045e-01, 3.81683469e-01, 2.11318955e-04,
          1.43477216e-01, 5.68487823e-01, 5.68487823e-01, 5.68487823e-01,
          6.47874400e-02, 1.68347196e-03, 1.38671673e-03, 2.11318955e-04,
          3.53796959e-01, 2.75501996e-01, 3.53796959e-01, 3.53796959e-01,
          3.53796959e-01, 3.53796959e-01, 3.53796959e-01, 2.10613221e-01,
          3.53796959e-01, 3.14474076e-01, 2.97046714e-02, 1.44839315e-02,
          9.80150998e-02, 1.27198085e-01, 1.82068899e-01, 5.27827978e-01,
          5.27827978e-01, 5.27827978e-01, 4.41840500e-01, 4.41840500e-01,
          4.41840500e-01, 4.26167548e-02, 1.39414622e-02, 1.50576932e-03,
          1.32130831e-01, 4.41840500e-01, 4.41840500e-01, 1.17220506e-01,
          5.68387926e-01, 5.68387926e-01, 5.68387926e-01, 1.05279721e-01,
          0., 5.02994517e-03, 1.61553062e-02, 4.35311720e-03 ]
      - [ 4.05798346e-01, 4.05798346e-01, 4.05798346e-01, 4.05798346e-01,
          1.62661076e-01, 2.79571682e-01, 5.44673093e-02, 4.05798346e-01,
          2.54949123e-01, 5.05317628e-01, 5.05317628e-01, 4.25829381e-01,
          5.17811514e-02, 2.18871638e-01, 2.35789657e-01, 1.38871297e-01,
          3.63120973e-01, 2.13555202e-01, 4.95950758e-01, 4.95950758e-01,
          3.97018492e-02, 0., 0., 0., 9.79880840e-02, 4.95950758e-01,
          4.95950758e-01, 2.45648012e-01, 7.48045417e-03, 0., 0.,
          4.83362824e-02, 4.50775167e-03, 5.57278931e-01, 5.57278931e-01,
          5.57278931e-01, 1.61792472e-01, 3.52511227e-01, 5.06884754e-01,
          5.06884754e-01, 5.06884754e-01, 1.91215917e-01, 1.02431819e-01,
          1.61909029e-01, 2.07286980e-02, 4.01753336e-01, 4.01753336e-01,
          4.01753336e-01, 4.01753336e-01, 2.09067360e-01, 9.59993005e-02,
          3.28375965e-01, 3.11885297e-01, 3.03867310e-01, 4.37001139e-01,
          4.37001139e-01, 3.05408955e-01, 1.07329719e-01, 1.34351850e-01,
          2.54723042e-01, 2.09824204e-01, 4.37001139e-01, 4.37001139e-01,
          6.53843135e-02, 7.03782588e-02, 9.57416594e-02, 2.59006828e-01,
          4.73356813e-01, 4.73356813e-01, 4.73356813e-01, 4.73356813e-01,
          1.16301648e-01, 1.28281899e-02, 4.12978902e-02, 1.19126827e-01,
          4.18308169e-01, 4.18308169e-01, 4.18308169e-01, 4.18308169e-01,
          4.18308169e-01, 3.23807776e-01, 4.64552641e-01, 4.64552641e-01,
          4.60828170e-02, 1.51804313e-01, 1.36613667e-01, 1.26657784e-01,
          2.68792927e-01, 4.64552641e-01, 4.64552641e-01, 5.14578998e-01,
          5.14578998e-01, 5.14578998e-01, 1.67118996e-01, 7.56473318e-02,
          6.35386184e-02, 2.39319913e-02, 3.23246568e-02, 4.01472628e-01,
          2.24799514e-01, 4.72034514e-01, 4.72034514e-01, 4.72034514e-01,
          4.72034514e-01, 1.99165791e-01, 1.13663547e-01, 2.60384791e-02,
          1.48223788e-02, 1.64416134e-01, 4.54584286e-02, 0., 0.,
          3.84862199e-02, 9.54557881e-02, 5.64114273e-01, 5.64114273e-01,
          5.64114273e-01, 5.68663776e-01, 7.93748423e-02, 6.76012714e-04,
          0., 2.44873064e-03, 7.48642068e-03, 1.33503705e-01,
          5.68663776e-01, 5.68663776e-01, 5.75152397e-01, 5.75152397e-01,
          3.28740999e-02, 1.35559938e-03, 1.33388268e-03, 9.92024667e-04,
          0., 2.77595837e-02, 5.75152397e-01, 5.55145919e-01,
          5.55145919e-01, 5.55145919e-01, 1.40667692e-01, 1.12791821e-01,
          3.15246242e-03, 0., 0., 1.93328291e-01 ]
      - [ 2.73033679e-01, 6.77172720e-01, 6.77172720e-01, 3.74120176e-02,
          6.52318262e-03, 1.09409001e-02, 0., 0., 2.14545592e-03,
          5.24029732e-01, 5.24029732e-01, 5.24029732e-01, 0.,
          6.02090871e-03, 1.00984704e-02, 0., 2.81571411e-02,
          4.12327707e-01, 5.09489715e-01, 3.29477191e-01, 3.65908928e-02,
          0., 3.07182176e-03, 3.03381216e-02, 3.24573934e-01,
          5.09489715e-01, 5.09489715e-01, 9.11595002e-02, 0., 0., 0.,
          1.06681325e-01, 4.93805885e-01, 4.93805885e-01, 4.93805885e-01,
          4.93805885e-01, 2.23704707e-02, 4.99209374e-01, 4.99209374e-01,
          4.99209374e-01, 3.77630621e-01, 2.19465718e-01, 1.40544340e-01,
          1.90685540e-01, 0., 2.55683511e-01, 5.20102322e-01,
          5.20102322e-01, 5.20102322e-01, 3.27826172e-01, 4.43772897e-02,
          8.55482649e-03, 1.55045493e-02, 9.03302059e-02, 3.69815826e-01,
          3.69815826e-01, 1.96043998e-01, 2.29291096e-02, 3.69815826e-01,
          3.69815826e-01, 3.69815826e-01, 3.69815826e-01, 3.69815826e-01,
          7.79548718e-04, 0., 0., 2.13451877e-01, 5.43271959e-01,
          5.43271959e-01, 5.43271959e-01, 2.47871324e-01, 4.62496951e-02,
          2.20791879e-03, 1.88628752e-02, 1.82070702e-01, 2.68705696e-01,
          4.71580714e-01, 4.71580714e-01, 4.71580714e-01, 4.71580714e-01,
          4.82200924e-03, 1.29357889e-01, 8.21033195e-02, 2.07187712e-01,
          4.44861710e-01, 4.44861710e-01, 4.44861710e-01, 4.44861710e-01,
          3.41140032e-01, 1.45502448e-01, 3.71005625e-01, 3.88857901e-01,
          4.36553776e-01, 4.36553776e-01, 4.36553776e-01, 2.47853249e-01,
          6.54349551e-02, 1.10794544e-01, 2.38867357e-01, 1.95168871e-02,
          9.48216766e-02, 5.62358677e-01, 5.62358677e-01, 5.62358677e-01,
          1.89232811e-01, 1.48469722e-02, 3.19792045e-04, 1.55208614e-02,
          5.60806729e-02, 0., 0., 0., 3.42683583e-01, 5.29038370e-01,
          5.29038370e-01, 5.29038370e-01, 1.85727760e-01, 4.60999101e-01,
          3.86595614e-02, 1.12577058e-01, 1.71444844e-02, 7.24078491e-02,
          3.54414374e-01, 4.60999101e-01, 4.60999101e-01, 4.60999101e-01,
          4.70422894e-01, 4.70422894e-01, 4.70422894e-01, 1.59106642e-01,
          2.28716359e-02, 4.74708341e-03, 2.37726755e-02, 2.89283276e-01,
          4.70422894e-01, 4.81737942e-01, 4.81737942e-01, 4.81737942e-01,
          4.81737942e-01, 2.25105882e-01, 0., 0., 0., 1.27396747e-01 ]
      - [ 3.71134251e-01, 3.71134251e-01, 3.71134251e-01, 1.33959964e-01,
          3.71134251e-01, 3.71134251e-01, 1.91131681e-01, 3.39664131e-01,
          3.71134251e-01, 6.06293857e-01, 6.06293857e-01, 4.66696858e-01,
          3.61522194e-03, 3.68335657e-02, 5.21728098e-02, 3.54690701e-02,
          4.14398611e-02, 1.84088454e-01, 4.96784776e-01, 4.96784776e-01,
          1.54825831e-02, 9.89787467e-03, 7.60466512e-03, 0.,
          8.63845721e-02, 4.96784776e-01, 4.96784776e-01, 3.26777250e-01,
          2.13201176e-02, 0., 2.52669360e-02, 1.60945371e-01,
          1.47446394e-01, 5.28897583e-01, 5.28897583e-01, 5.28897583e-01,
          3.51588607e-01, 3.51588607e-01, 3.51588607e-01, 3.51588607e-01,
          3.51588607e-01, 3.51588607e-01, 1.77202970e-01, 3.15886676e-01,
          3.51588607e-01, 5.17542660e-01, 5.29681385e-01, 5.29681385e-01,
          5.89730330e-02, 3.11179608e-01, 9.74932835e-02, 7.02645034e-02,
          1.76140651e-01, 1.41268626e-01, 4.38363463e-01, 4.38363463e-01,
          3.82978916e-01, 2.63288289e-01, 1.71230078e-01, 2.18998656e-01,
          9.69657078e-02, 3.41258705e-01, 4.38363463e-01, 1.77431270e-01,
          5.91724440e-02, 2.45909363e-01, 4.32176083e-01, 4.32176083e-01,
          4.32176083e-01, 4.32176083e-01, 3.79534155e-01, 9.52749699e-02,
          3.96601290e-01, 1.80756971e-01, 2.24917814e-01, 2.84927309e-01,
          3.96601290e-01, 2.12439120e-01, 3.96601290e-01, 3.96601290e-01,
          3.96601290e-01, 3.04010391e-01, 2.94636250e-01, 1.36903271e-01,
          5.50127216e-02, 3.56933862e-01, 1.51735127e-01, 4.63301659e-01,
          4.63301659e-01, 4.63301659e-01, 4.40687865e-01, 4.40687865e-01,
          4.40687865e-01, 1.12096883e-01, 4.47923429e-02, 1.69367529e-02,
          9.85401571e-02, 4.40687865e-01, 4.40687865e-01, 6.30537719e-02,
          4.95979369e-01, 4.95979369e-01, 4.95979369e-01, 4.95979369e-01,
          8.16201046e-02, 1.65966190e-02, 0., 1.22974487e-02,
          4.49348658e-01, 0., 0., 0., 3.26593667e-01, 2.84940779e-01,
          4.49348658e-01, 4.49348658e-01, 4.49348658e-01, 4.71304744e-01,
          2.18916815e-02, 1.65534422e-01, 3.43401097e-02, 2.71031439e-01,
          6.52825162e-02, 4.71304744e-01, 4.71304744e-01, 4.71304744e-01,
          4.36300516e-01, 4.36300516e-01, 2.38521531e-01, 8.19012225e-02,
          2.74665117e-01, 6.62822574e-02, 3.01288426e-01, 4.36300516e-01,
          4.36300516e-01, 5.55681765e-01, 5.55681765e-01, 5.55681765e-01,
          9.78059992e-02, 2.19352275e-01, 1.37324519e-02, 0., 0.,
          1.01163656e-01 ]
      - [ 4.70130056e-01, 4.70130056e-01, 4.69869792e-01, 3.17424387e-01,
          6.38813898e-02, 0., 0., 8.13670307e-02, 4.70130056e-01,
          6.34993017e-01, 2.19493210e-01, 1.82776526e-02, 0., 0., 0., 0.,
          3.72446954e-01, 6.34993017e-01, 6.04931831e-01, 5.01506686e-01,
          0., 0., 0., 0., 0., 1.02790549e-01, 6.04931831e-01,
          5.18632591e-01, 8.99778213e-03, 0., 0., 1.27062023e-01,
          1.90953374e-01, 3.67685139e-01, 5.18632591e-01, 5.18632591e-01,
          4.35195923e-01, 4.35195923e-01, 4.35195923e-01, 4.35195923e-01,
          4.35195923e-01, 8.05446133e-02, 1.45810217e-01, 8.22933316e-02,
          1.18974499e-01, 5.75982869e-01, 2.84284115e-01, 9.67836902e-02,
          4.50199731e-02, 1.80913478e-01, 3.08579169e-02, 3.56777795e-02,
          4.51187223e-01, 5.75982869e-01, 4.87049639e-01, 4.87049639e-01,
          6.08030260e-02, 5.86715387e-03, 3.10052842e-01, 1.51701361e-01,
          2.30193380e-02, 4.00095075e-01, 4.87049639e-01, 1.16930731e-01,
          2.91931089e-02, 6.37724996e-02, 1.76598743e-01, 4.34942812e-01,
          4.34942812e-01, 4.34942812e-01, 4.34942812e-01, 4.34942812e-01,
          3.52689549e-02, 3.06063835e-02, 1.00559838e-01, 2.11790532e-01,
          5.11317015e-01, 2.64903188e-01, 5.11317015e-01, 5.11317015e-01,
          2.88506925e-01, 5.39138973e-01, 1.98152557e-01, 1.90045796e-02,
          8.68962519e-03, 2.04240188e-01, 5.31621687e-02, 1.95861623e-01,
          5.39138973e-01, 5.39138973e-01, 4.86844838e-01, 4.86844838e-01,
          2.48805851e-01, 1.74845774e-02, 4.21141475e-01, 1.11195095e-01,
          2.51557305e-02, 1.77528858e-01, 4.86844838e-01, 4.42733526e-01,
          4.42733526e-01, 4.42733526e-01, 4.42733526e-01, 4.42733526e-01,
          9.22221094e-02, 1.48741610e-03, 6.56073960e-03, 8.34422708e-02,
          1.62703678e-01, 0., 0., 0., 2.45815609e-02, 9.40829888e-03,
          5.58345616e-01, 5.72437167e-01, 5.72437167e-01, 5.69107711e-01,
          1.48195311e-01, 0., 0., 0., 1.66275841e-03, 2.64878850e-02,
          5.69107711e-01, 5.69107711e-01, 5.75678766e-01, 5.75678766e-01,
          5.40519180e-03, 0., 0., 0., 0., 2.04062834e-03, 5.75678766e-01,
          5.87814748e-01, 5.87814748e-01, 3.88872087e-01, 1.46266326e-01,
          3.99819762e-02, 0., 0., 0., 3.58976781e-01 ]
      - [ 5.54446578e-01, 5.54446578e-01, 5.54446578e-01, 2.29860410e-01,
          1.20627679e-01, 0., 0., 0., 6.95953518e-02, 5.52912414e-01,
          5.52912414e-01, 5.52912414e-01, 1.60565183e-01, 1.21474394e-03,
          0., 0., 4.18931320e-02, 2.23169178e-01, 4.33785528e-01,
          4.33785528e-01, 1.92182977e-02, 2.58402992e-02, 7.66573325e-02,
          2.18869790e-01, 4.33785528e-01, 4.33785528e-01, 4.33785528e-01,
          1.79763325e-02, 0., 0., 0., 1.16987385e-01, 5.68943977e-01,
          5.68943977e-01, 5.68943977e-01, 9.60088521e-02, 1.29109338e-01,
          4.42467421e-01, 4.42467421e-01, 4.42467421e-01, 4.42467421e-01,
          4.42467421e-01, 0., 0., 4.89210384e-03, 5.04282892e-01,
          5.04282892e-01, 5.04282892e-01, 2.77185619e-01, 3.58636916e-01,
          1.19865529e-01, 0., 1.85353719e-02, 1.09070145e-01,
          1.83361545e-01, 2.24726051e-01, 3.80778909e-01, 3.64294559e-01,
          3.89880270e-01, 3.89880270e-01, 3.89880270e-01, 3.89880270e-01,
          1.62025541e-01, 0., 6.26709126e-03, 1.51569426e-01,
          2.96599209e-01, 5.33761382e-01, 5.33761382e-01, 5.33761382e-01,
          1.68440789e-01, 2.46968344e-02, 6.94216322e-03, 1.78891374e-03,
          1.49968844e-02, 1.15986638e-01, 5.62023580e-01, 5.62023580e-01,
          5.62023580e-01, 1.58694983e-01, 8.86727646e-02, 3.71348113e-01,
          3.71348113e-01, 1.80338636e-01, 6.56649321e-02, 3.63399863e-01,
          3.71348113e-01, 3.71348113e-01, 3.71348113e-01, 3.71348113e-01,
          7.78193623e-02, 6.69098854e-01, 6.69098854e-01, 2.59691507e-01,
          1.52785033e-01, 2.07268633e-02, 0., 0., 2.57917922e-02,
          8.91530048e-03, 4.95978177e-01, 4.95978177e-01, 4.95978177e-01,
          4.95978177e-01, 1.02216154e-01, 2.14922354e-02, 0.,
          8.91530048e-03, 7.94692189e-02, 5.39379427e-03, 6.08914951e-03,
          7.61411572e-03, 8.47760886e-02, 4.95334834e-01, 4.95334834e-01,
          4.95334834e-01, 4.95334834e-01, 4.57394361e-01, 4.57394361e-01,
          1.79780915e-01, 1.17021769e-01, 8.98549706e-02, 5.03331162e-02,
          3.19327623e-01, 4.57394361e-01, 4.57394361e-01, 5.61533034e-01,
          5.61533034e-01, 5.61533034e-01, 3.02308463e-02, 2.34771352e-02,
          0., 0., 0., 2.16724232e-01, 1.58831924e-01, 6.89848959e-01,
          6.89848959e-01, 1.07727401e-01, 3.23807560e-02, 0., 0., 0.,
          5.87280728e-02 ]
      - [ 2.37012759e-01, 6.78694665e-01, 6.78694665e-01, 3.98840290e-03,
          1.64946611e-03, 0., 0., 0., 1.25611007e-01, 6.19475603e-01,
          6.19475603e-01, 3.79948676e-01, 5.59374597e-03, 0., 0., 0., 0.,
          2.86221117e-01, 5.34603775e-01, 3.65170091e-01, 8.23681476e-04,
          3.29961797e-04, 0., 0., 6.25107661e-02, 5.34603775e-01,
          5.34603775e-01, 1.49060756e-01, 3.20891198e-03, 0., 0.,
          1.68385804e-01, 1.09427124e-01, 5.57337940e-01, 5.57337940e-01,
          5.57337940e-01, 5.58767095e-02, 5.47240317e-01, 5.47240317e-01,
          5.47240317e-01, 2.97953993e-01, 6.19996712e-02, 0.,
          7.15574902e-03, 1.80374198e-02, 5.57477832e-01, 5.57477832e-01,
          5.57477832e-01, 1.50339708e-01, 1.26016065e-01, 6.99563324e-02,
          4.67436612e-02, 8.41150731e-02, 9.72230285e-02, 4.42993164e-01,
          4.42993164e-01, 1.49446413e-01, 3.20852399e-01, 1.95315555e-01,
          5.34813479e-03, 3.61861318e-01, 3.35328788e-01, 4.42993164e-01,
          1.26648813e-01, 1.32235140e-02, 7.70279169e-02, 4.09391761e-01,
          4.55030054e-01, 4.55030054e-01, 4.55030054e-01, 4.00097460e-01,
          1.56429738e-01, 3.51182193e-01, 1.53575495e-01, 3.51182193e-01,
          3.31064075e-01, 3.51182193e-01, 3.51182193e-01, 3.51182193e-01,
          3.51182193e-01, 3.51182193e-01, 4.03145134e-01, 3.00789803e-01,
          3.09705466e-01, 1.35691524e-01, 1.59193039e-01, 3.40179384e-01,
          4.03145134e-01, 4.03145134e-01, 4.03145134e-01, 3.76863420e-01,
          3.76863420e-01, 3.76863420e-01, 3.76863420e-01, 1.15775950e-01,
          2.22574603e-02, 3.60803843e-01, 3.76863420e-01, 3.76863420e-01,
          5.40823117e-02, 2.00577632e-01, 5.60451865e-01, 5.60451865e-01,
          5.60451865e-01, 8.54271725e-02, 3.91168185e-02, 1.69647945e-04,
          1.00058457e-02, 5.50284445e-01, 1.00866757e-01, 0., 0.,
          5.74121103e-02, 9.97984111e-02, 2.50271738e-01, 5.50284445e-01,
          5.50284445e-01, 4.68007416e-01, 1.58938002e-02, 0., 0., 0.,
          5.83575219e-02, 5.07360399e-01, 5.07360399e-01, 5.07360399e-01,
          4.25190270e-01, 4.25190270e-01, 3.16730559e-01, 1.88875385e-02,
          0., 8.46273918e-03, 4.14558828e-01, 4.25190270e-01,
          4.25190270e-01, 5.25945783e-01, 5.25945783e-01, 5.25945783e-01,
          3.30770552e-01, 4.63149883e-02, 0., 0., 0., 2.30946839e-01 ]
      - [ 2.33801961e-01, 5.12990892e-01, 6.44835413e-01, 4.91062939e-01,
          1.33940205e-01, 0., 0., 0., 2.90449727e-02, 5.31053901e-01,
          5.31053901e-01, 5.31053901e-01, 2.23240495e-01, 4.78256494e-03,
          0., 0., 3.48568032e-03, 3.14277768e-01, 4.57507372e-01,
          4.57507372e-01, 4.57507372e-01, 3.37822646e-01, 8.31751991e-03,
          2.04139426e-02, 1.11858219e-01, 1.76226914e-01, 4.57507372e-01,
          4.09493893e-01, 2.23308325e-01, 6.08461499e-02, 3.41323810e-03,
          3.22339147e-01, 4.09493893e-01, 4.09493893e-01, 4.09493893e-01,
          4.09493893e-01, 2.91630044e-03, 1.34306192e-01, 5.65393150e-01,
          5.65393150e-01, 5.65393150e-01, 1.31526172e-01, 0., 0.,
          5.00171911e-04, 4.86290783e-01, 4.86290783e-01, 4.86290783e-01,
          4.86290783e-01, 1.15930036e-01, 2.44268775e-02, 0.,
          5.62940957e-04, 1.87593475e-01, 4.43779945e-01, 4.43779945e-01,
          3.67907912e-01, 4.43779945e-01, 2.60421395e-01, 2.85124197e-03,
          1.56233832e-02, 6.61572218e-02, 4.43779945e-01, 4.04995412e-01,
          4.04995412e-01, 9.09544900e-02, 5.36461622e-02, 4.04995412e-01,
          2.72161454e-01, 3.01040590e-01, 4.04995412e-01, 4.04995412e-01,
          1.08766176e-01, 9.03735496e-03, 2.27391616e-01, 4.67768013e-01,
          4.67768013e-01, 4.67768013e-01, 4.67768013e-01, 2.36203521e-01,
          2.62575932e-02, 2.72679389e-01, 4.72334996e-02, 3.73039335e-01,
          3.73039335e-01, 3.73039335e-01, 3.73039335e-01, 3.73039335e-01,
          3.73039335e-01, 2.91097969e-01, 4.73850012e-01, 4.73850012e-01,
          4.73850012e-01, 1.88536838e-01, 8.06630999e-02, 2.37788707e-02,
          6.08969517e-02, 2.25399807e-01, 4.73850012e-01, 9.66068134e-02,
          4.12636340e-01, 4.12636340e-01, 4.12636340e-01, 4.12636340e-01,
          3.28092992e-01, 5.51892295e-02, 1.90493524e-01, 3.98109645e-01,
          2.83490151e-01, 1.04046660e-02, 0., 0., 4.60733950e-01,
          4.60733950e-01, 4.60733950e-01, 4.60733950e-01, 2.56554157e-01,
          4.20127809e-01, 3.24253142e-02, 3.37016559e-03, 1.26594389e-02,
          2.97281407e-02, 4.32028681e-01, 4.58315462e-01, 4.58315462e-01,
          4.58315462e-01, 4.69477266e-01, 4.69477266e-01, 4.69477266e-01,
          1.23984165e-01, 7.34020472e-02, 6.46887198e-02, 9.91284549e-02,
          2.80898750e-01, 4.69477266e-01, 4.80766535e-01, 4.80766535e-01,
          4.80766535e-01, 4.80766535e-01, 1.47937655e-01, 3.29287574e-02,
          1.49590923e-02, 9.23932418e-02, 1.97286889e-01 ]
      - [ 4.70369339e-01, 4.70369339e-01, 4.70369339e-01, 2.87962705e-01,
          1.00804523e-01, 1.23288538e-02, 9.37735289e-02, 9.10103396e-02,
          4.70369339e-01, 3.83504570e-01, 2.85323828e-01, 1.70845836e-01,
          8.45979527e-02, 3.78199607e-01, 3.83504570e-01, 3.83504570e-01,
          3.83504570e-01, 3.83504570e-01, 5.58644295e-01, 5.58644295e-01,
          2.38322854e-01, 0., 5.93574625e-03, 3.09530776e-02,
          1.62720140e-02, 1.07306493e-02, 5.58644295e-01, 6.20887816e-01,
          1.71368659e-01, 6.34791330e-02, 0., 2.43623644e-01,
          1.16470948e-01, 2.88577676e-01, 1.82224020e-01, 6.20887816e-01,
          3.14757258e-01, 4.49346453e-01, 4.62322295e-01, 4.62322295e-01,
          4.62322295e-01, 1.98603556e-01, 4.23218459e-02, 1.92708038e-02,
          1.07546791e-01, 4.51799780e-01, 4.51799780e-01, 4.51799780e-01,
          1.72054529e-01, 3.43563676e-01, 1.48781776e-01, 2.69580901e-01,
          1.97281837e-01, 3.18981558e-01, 5.92832625e-01, 5.92832625e-01,
          4.51176167e-01, 1.53560182e-02, 4.24637785e-03, 6.72610989e-03,
          1.35548292e-02, 6.00973032e-02, 2.89006919e-01, 3.60718787e-01,
          3.60705078e-01, 3.60718787e-01, 1.37256742e-01, 3.60718787e-01,
          3.60718787e-01, 2.58341551e-01, 3.60718787e-01, 3.60718787e-01,
          1.21447273e-01, 2.57084459e-01, 3.87467027e-01, 3.87467027e-01,
          3.87467027e-01, 3.87467027e-01, 3.87467027e-01, 3.87467027e-01,
          1.20428056e-01, 3.98088425e-01, 3.98088425e-01, 3.98088425e-01,
          6.81760833e-02, 8.43476430e-02, 2.32104629e-01, 3.71504933e-01,
          3.98088425e-01, 3.98088425e-01, 4.69930708e-01, 4.69930708e-01,
          4.69930708e-01, 1.71249524e-01, 3.51426005e-02, 0.,
          1.04988646e-02, 2.85122782e-01, 4.69930708e-01, 2.12852210e-01,
          4.88332510e-01, 4.88332510e-01, 4.88332510e-01, 4.77395773e-01,
          4.24863249e-02, 0., 5.79240620e-02, 3.66538167e-02,
          3.07637900e-01, 0., 8.10060054e-02, 5.40009178e-02,
          1.76291883e-01, 2.31684759e-01, 5.18313885e-01, 5.18313885e-01,
          5.18313885e-01, 5.25203705e-01, 0., 9.91429854e-03,
          6.60915393e-03, 2.36557461e-02, 3.71893495e-02, 4.06390667e-01,
          5.25203705e-01, 5.25203705e-01, 4.74418461e-01, 4.74418461e-01,
          2.98065335e-01, 5.51292785e-02, 5.25799394e-02, 0.,
          1.79765541e-02, 4.74418461e-01, 4.74418461e-01, 5.51465511e-01,
          5.51465511e-01, 5.51465511e-01, 9.63957682e-02, 4.43115495e-02,
          0., 0., 6.48357626e-03, 2.66181350e-01 ]
      - [ 6.38371527e-01, 6.38371527e-01, 8.28473072e-04, 0., 0., 0., 0.,
          0., 4.22598481e-01, 6.43762290e-01, 3.83846879e-01,
          1.13683179e-01, 6.34596348e-02, 2.05802917e-02, 0., 0., 0.,
          6.43762290e-01, 6.12623990e-01, 1.10755578e-01, 3.49501781e-02,
          1.69045717e-01, 7.25960284e-02, 0., 4.84481119e-02,
          4.39982563e-01, 6.12623990e-01, 4.48684424e-01, 0., 0.,
          7.13765481e-03, 3.77471000e-02, 1.31970011e-02, 9.40982401e-02,
          6.25273943e-01, 6.25273943e-01, 4.76248652e-01, 4.76248652e-01,
          4.76248652e-01, 2.56859243e-01, 3.92550737e-01, 4.65729833e-02,
          8.71446729e-02, 2.34966770e-01, 1.72509536e-01, 5.05782723e-01,
          5.05782723e-01, 4.63394701e-01, 9.45006609e-02, 3.32775228e-02,
          0., 2.73271110e-02, 4.45068888e-02, 5.05782723e-01,
          4.01364714e-01, 4.01364714e-01, 3.17496836e-01, 2.51009136e-01,
          1.56555653e-01, 1.89394325e-01, 3.56968105e-01, 4.01364714e-01,
          4.01364714e-01, 6.96504116e-02, 3.88892740e-01, 2.97731340e-01,
          2.63142377e-01, 3.88892740e-01, 3.88892740e-01, 3.88892740e-01,
          3.88892740e-01, 2.77827471e-01, 9.21374187e-02, 2.53474623e-01,
          3.57132941e-01, 2.79622525e-01, 3.88049483e-01, 2.93449163e-01,
          4.51611847e-01, 4.51611847e-01, 2.69102722e-01, 4.38205242e-01,
          4.38205242e-01, 1.71573296e-01, 6.14465028e-02, 1.93309393e-02,
          4.37805839e-02, 4.38205242e-01, 4.38205242e-01, 4.38205242e-01,
          5.46154201e-01, 5.46154201e-01, 5.46154201e-01, 5.36155738e-02,
          1.69528723e-02, 3.88842039e-02, 5.01870960e-02, 6.83205873e-02,
          2.96365023e-01, 7.79794902e-02, 5.34412742e-01, 5.34412742e-01,
          4.48951751e-01, 4.12674695e-01, 1.53071418e-01, 1.18182354e-01,
          8.95896256e-02, 1.02954414e-02, 3.05118352e-01, 0.,
          3.29486988e-02, 2.19645202e-02, 2.38908064e-02, 4.13388342e-01,
          4.92933720e-01, 4.92933720e-01, 4.92933720e-01, 4.96174574e-01,
          4.65433329e-01, 5.36979772e-02, 2.39546434e-03, 2.59513326e-04,
          1.59856249e-02, 1.91582724e-01, 4.96174574e-01, 4.96174574e-01,
          5.47199428e-01, 5.47199428e-01, 3.04916501e-01, 1.42218615e-03,
          0., 0., 1.66025907e-02, 5.47929257e-02, 5.47199428e-01,
          5.74607849e-01, 5.74607849e-01, 5.74607849e-01, 7.61464285e-03,
          0., 0., 0., 0., 6.06759526e-02 ]
      - [ 3.40791196e-01, 6.17151678e-01, 6.17151678e-01, 3.30241203e-01,
          7.87483081e-02, 5.12837258e-04, 0., 1.50441681e-03,
          2.61548981e-02, 5.96181870e-01, 5.96181870e-01, 3.40923876e-01,
          1.67702734e-02, 9.05091583e-04, 1.17802457e-03, 9.45668295e-03,
          1.46078616e-01, 3.81104410e-01, 5.34980714e-01, 8.33847672e-02,
          1.72978081e-02, 1.12006697e-03, 3.56851704e-03, 8.90915841e-02,
          3.47621709e-01, 5.34980714e-01, 5.34980714e-01, 2.38869917e-02,
          0., 0., 6.25788409e-04, 1.29006475e-01, 1.97598279e-01,
          5.59212863e-01, 5.59212863e-01, 5.59212863e-01, 1.80068791e-01,
          2.96532094e-01, 5.11003375e-01, 5.11003375e-01, 4.98904914e-01,
          1.90294176e-01, 2.46364355e-01, 3.40353046e-03, 8.04154053e-02,
          4.65272963e-01, 4.65272963e-01, 4.65272963e-01, 4.65272963e-01,
          3.20958167e-01, 7.31845275e-02, 5.84267043e-02, 1.06573790e-01,
          7.93421566e-02, 2.76834279e-01, 3.08894873e-01, 3.56990248e-01,
          3.57495219e-01, 3.57495219e-01, 3.57495219e-01, 3.57495219e-01,
          3.57495219e-01, 2.40663603e-01, 1.16320085e-02, 6.31538630e-02,
          5.76868728e-02, 2.41359830e-01, 4.78710860e-01, 4.78710860e-01,
          4.78710860e-01, 4.78710860e-01, 1.13386348e-01, 2.32589245e-01,
          3.50916207e-01, 3.52770239e-01, 2.69359261e-01, 3.52770239e-01,
          3.52770239e-01, 3.52770239e-01, 3.52770239e-01, 3.52770239e-01,
          3.88017744e-01, 3.88017744e-01, 3.88017744e-01, 3.88017744e-01,
          2.56178319e-01, 3.11516281e-02, 2.73429632e-01, 3.19332600e-01,
          3.88017744e-01, 4.28221703e-01, 4.28221703e-01, 4.28221703e-01,
          4.28221703e-01, 4.28221703e-01, 9.88200605e-02, 1.70453936e-02,
          4.32454832e-02, 2.58702904e-01, 3.57383996e-01, 2.99510151e-01,
          5.02493501e-01, 5.02493501e-01, 5.02493501e-01, 1.29414886e-01,
          2.31727422e-03, 7.40148302e-04, 5.74329607e-02, 2.34613061e-01,
          3.27673070e-02, 7.12310225e-02, 1.64989810e-02, 1.43970817e-01,
          2.91726410e-01, 2.60970473e-01, 6.15812778e-01, 6.15812778e-01,
          6.42556846e-01, 1.12547316e-01, 5.92080457e-03, 0., 0.,
          2.65033450e-03, 4.10094745e-02, 3.91708195e-01, 6.42556846e-01,
          5.74677408e-01, 5.74677408e-01, 3.80226746e-02, 3.01653761e-02,
          6.25161268e-03, 1.20889687e-03, 6.93026755e-04, 3.32058929e-02,
          5.74677408e-01, 4.87775624e-01, 4.87775624e-01, 1.70563504e-01,
          4.87775624e-01, 3.15663397e-01, 1.04005169e-02, 4.54823166e-04,
          5.56899060e-04, 3.90523940e-01 ]
      - [ 3.75162750e-01, 3.75162750e-01, 3.75162750e-01, 2.77538836e-01,
          3.70514840e-01, 1.06406569e-01, 3.75162750e-01, 2.58621454e-01,
          3.75162750e-01, 5.98952770e-01, 5.98952770e-01, 4.61453229e-01,
          4.58178446e-02, 1.25882523e-02, 2.43167439e-03, 1.19114732e-02,
          5.91019075e-03, 2.47287676e-01, 4.82196897e-01, 4.78582352e-01,
          8.88549350e-03, 0., 0., 3.54441814e-02, 2.59356856e-01,
          4.82196897e-01, 4.82196897e-01, 1.97410882e-01, 0., 0., 0.,
          9.65422988e-02, 2.10580081e-01, 5.48297107e-01, 5.48297107e-01,
          5.48297107e-01, 3.49969298e-01, 9.02912095e-02, 3.08314502e-01,
          3.82066637e-01, 3.82066637e-01, 3.82066637e-01, 3.82066637e-01,
          2.88121581e-01, 3.21839184e-01, 4.18592900e-01, 4.18592900e-01,
          4.18592900e-01, 3.32502156e-01, 4.18592900e-01, 3.92970324e-01,
          9.90267470e-02, 6.16631508e-02, 1.27853140e-01, 4.08825934e-01,
          4.08825934e-01, 2.12146029e-01, 1.24327295e-01, 2.47750878e-01,
          1.95905522e-01, 4.08825934e-01, 4.08825934e-01, 4.08825934e-01,
          3.45265977e-02, 1.24349389e-02, 1.17053896e-01, 2.44099453e-01,
          4.75354582e-01, 4.75354582e-01, 4.75354582e-01, 4.75354582e-01,
          1.29504666e-01, 2.31923461e-02, 1.62590947e-03, 8.44919495e-03,
          6.28373325e-02, 2.93298632e-01, 4.99534607e-01, 4.99534607e-01,
          4.99534607e-01, 3.94742697e-01, 4.03709739e-01, 6.45404011e-02,
          8.67303237e-02, 7.99373314e-02, 4.03709739e-01, 4.03709739e-01,
          4.03709739e-01, 4.03709739e-01, 4.03709739e-01, 4.51392889e-01,
          4.51392889e-01, 4.51392889e-01, 1.77928269e-01, 1.72102436e-01,
          1.28113434e-01, 1.14202999e-01, 2.99559504e-01, 4.51392889e-01,
          9.61817205e-02, 4.81154531e-01, 4.81154531e-01, 4.81154531e-01,
          4.81154531e-01, 2.36804545e-01, 6.13275021e-02, 7.45425187e-03,
          3.41188698e-03, 1.56123489e-01, 0., 0., 7.86890369e-03,
          5.04450575e-02, 8.70343745e-02, 5.65625250e-01, 5.65625250e-01,
          5.65625250e-01, 5.65856814e-01, 0., 0., 9.76681709e-03,
          3.23791197e-03, 2.76786499e-02, 1.81371450e-01, 5.65856814e-01,
          5.65856814e-01, 4.95362520e-01, 4.95362520e-01, 1.15434282e-01,
          2.84629787e-04, 0., 1.46928371e-03, 1.37484986e-02,
          4.95362520e-01, 4.95362520e-01, 5.55858970e-01, 5.55858970e-01,
          5.55858970e-01, 2.20064640e-01, 6.23143725e-02, 0., 0., 0.,
          1.23288319e-01 ]
      - [ 4.01900895e-02, 6.14893496e-01, 6.14893496e-01, 4.76050526e-01,
          7.31995404e-02, 0., 0., 4.46335636e-02, 4.56388183e-02,
          5.37095010e-01, 5.77422798e-01, 5.77422798e-01, 7.90870935e-02,
          8.66440162e-02, 7.42864935e-03, 3.29122022e-02, 3.82350422e-02,
          1.50222346e-01, 4.25119877e-01, 4.25119877e-01, 3.02499741e-01,
          1.11377332e-03, 9.89140943e-03, 2.26623323e-02, 4.25119877e-01,
          4.25119877e-01, 4.25119877e-01, 3.96526344e-02, 0., 0., 0.,
          5.79802021e-02, 5.34735978e-01, 5.52070796e-01, 5.52070796e-01,
          3.06669265e-01, 5.83829843e-02, 2.44805127e-01, 6.13762438e-01,
          6.13762438e-01, 3.18103194e-01, 1.73710868e-01, 1.14186406e-01,
          6.61236569e-02, 1.68371603e-01, 9.63932872e-02, 3.99071187e-01,
          3.99071187e-01, 3.99071187e-01, 3.99071187e-01, 3.85453194e-01,
          3.96210045e-01, 1.37447000e-01, 1.58877879e-01, 3.56870174e-01,
          3.56870174e-01, 3.19955051e-01, 2.17693582e-01, 3.56870174e-01,
          3.56870174e-01, 3.56870174e-01, 3.56870174e-01, 2.87288934e-01,
          4.55954578e-03, 0., 3.47119421e-02, 2.74828047e-01,
          5.35178959e-01, 5.35178959e-01, 5.35178959e-01, 2.42070034e-01,
          7.21093640e-03, 2.13017493e-01, 2.03455448e-01, 2.61697114e-01,
          3.84527177e-01, 3.84527177e-01, 3.84527177e-01, 3.84527177e-01,
          3.84527177e-01, 3.18742633e-01, 1.39001563e-01, 2.07863376e-01,
          3.99284214e-01, 3.99284214e-01, 5.28135896e-02, 3.99284214e-01,
          3.99284214e-01, 3.99284214e-01, 3.65449995e-01, 3.87818545e-01,
          3.87818545e-01, 3.87818545e-01, 3.87818545e-01, 3.87818545e-01,
          9.96173918e-02, 2.82416940e-01, 1.72487140e-01, 3.53093058e-01,
          3.34216245e-02, 3.12385350e-01, 5.29767156e-01, 5.29767156e-01,
          5.29767156e-01, 2.27006376e-01, 4.90726046e-02, 4.99046082e-03,
          9.12596565e-03, 4.21223134e-01, 2.15273216e-01, 1.34384096e-01,
          0., 2.10347310e-01, 4.21223134e-01, 4.21223134e-01,
          4.21223134e-01, 4.21223134e-01, 2.08182693e-01, 7.82929808e-02,
          5.00293858e-02, 0., 7.47189904e-03, 1.58148736e-01,
          5.53003311e-01, 5.53003311e-01, 5.53003311e-01, 4.43053693e-01,
          4.43053693e-01, 4.43053693e-01, 1.84051320e-02, 3.68816243e-03,
          2.09169555e-02, 2.68223524e-01, 3.71018112e-01, 4.43053693e-01,
          3.52278352e-01, 5.88059962e-01, 5.88059962e-01, 4.02304441e-01,
          1.17857255e-01, 0., 2.68267300e-02, 3.09331454e-02,
          3.13579030e-02 ]
      - [ 5.37734449e-01, 5.37734449e-01, 5.37734449e-01, 1.54204220e-01,
          2.17225850e-01, 0., 0., 0., 2.37042084e-01, 5.65538943e-01,
          5.65538943e-01, 1.86431855e-01, 1.40174024e-03, 8.30685347e-03,
          0., 0., 4.68011945e-03, 5.65538943e-01, 5.10039985e-01,
          1.87159944e-02, 0., 0., 9.79731977e-03, 1.09114749e-02,
          4.62513238e-01, 5.10039985e-01, 5.10039985e-01, 4.93303910e-02,
          0., 0., 0., 6.00751452e-02, 3.66181880e-01, 5.33709764e-01,
          5.33709764e-01, 5.33709764e-01, 3.66123468e-01, 3.66123468e-01,
          3.66123468e-01, 2.18653426e-01, 3.66123468e-01, 3.66123468e-01,
          3.55388761e-01, 1.33989722e-01, 3.66123468e-01, 5.71509898e-01,
          5.71509898e-01, 1.15217283e-01, 4.37689107e-03, 0.,
          5.07548451e-03, 2.41957996e-02, 2.27401350e-02, 5.71509898e-01,
          4.06247348e-01, 1.92009017e-01, 3.36582899e-01, 3.85982752e-01,
          2.42588952e-01, 1.50151476e-01, 4.06247348e-01, 3.46840113e-01,
          4.06247348e-01, 2.92256288e-02, 3.75294639e-03, 1.26436621e-01,
          4.61765110e-01, 4.61765110e-01, 4.61765110e-01, 4.61765110e-01,
          3.37118208e-01, 1.09436721e-01, 3.74084353e-01, 1.30087584e-01,
          1.08515643e-01, 3.57672483e-01, 3.74084353e-01, 3.74084353e-01,
          3.74084353e-01, 3.74084353e-01, 3.74084353e-01, 4.90576744e-01,
          4.90576744e-01, 1.68971315e-01, 3.89562882e-02, 1.25242425e-02,
          5.55114262e-02, 3.06722015e-01, 3.81730139e-01, 4.90576744e-01,
          5.19477010e-01, 5.19477010e-01, 5.19477010e-01, 4.05760050e-01,
          6.15861155e-02, 3.96660566e-02, 3.15233506e-02, 5.24756149e-04,
          1.19337626e-01, 6.50914982e-02, 4.86992598e-01, 4.86992598e-01,
          4.86992598e-01, 4.86992598e-01, 1.96905017e-01, 5.70914149e-02,
          3.35625419e-03, 1.44782662e-02, 2.05403596e-01, 0.,
          7.47818425e-02, 9.17346328e-02, 2.15050161e-01, 4.72450078e-01,
          4.72450078e-01, 4.72450078e-01, 4.72450078e-01, 4.88732547e-01,
          4.88732547e-01, 7.17481226e-02, 1.70906596e-02, 1.55226246e-03,
          4.08186354e-02, 1.80477962e-01, 4.88732547e-01, 4.88732547e-01,
          6.54082060e-01, 6.54082060e-01, 3.28997701e-01, 2.63241865e-03,
          6.83871622e-04, 0., 0., 0., 1.71977654e-01, 5.29025018e-01,
          5.29025018e-01, 5.29025018e-01, 3.65577549e-01, 2.80476063e-02,
          0., 0., 0., 1.43808156e-01 ]
      - [ 1.83835641e-01, 5.44372082e-01, 5.67834556e-01, 5.67834556e-01,
          1.38844520e-01, 0., 0., 0., 6.57770038e-03, 4.43972409e-01,
          4.43972409e-01, 4.43972409e-01, 7.61414617e-02, 1.44944396e-02,
          0., 6.32460862e-02, 4.43972409e-01, 4.43972409e-01,
          4.57509965e-01, 4.57509965e-01, 3.70861329e-02, 9.55355819e-04,
          0., 4.61455025e-02, 3.93272072e-01, 4.57509965e-01,
          4.57509965e-01, 9.44442526e-02, 0., 0., 0., 6.37567565e-02,
          4.93361920e-01, 4.96203423e-01, 4.96203423e-01, 4.96203423e-01,
          1.60533702e-03, 3.22477221e-02, 5.74786246e-01, 5.74786246e-01,
          5.74786246e-01, 4.55235131e-02, 2.13892818e-05, 1.93992094e-03,
          2.00731074e-03, 3.32362384e-01, 4.03043956e-01, 4.03043956e-01,
          4.03043956e-01, 2.28743941e-01, 3.87919545e-01, 2.85168558e-01,
          1.82196915e-01, 2.84347504e-01, 3.48963857e-01, 3.48963857e-01,
          3.48963857e-01, 2.15439036e-01, 3.48963857e-01, 3.48963857e-01,
          3.48963857e-01, 3.12520593e-01, 3.48963857e-01, 4.69195880e-02,
          3.34163308e-02, 3.40164565e-02, 2.18919039e-01, 5.51345766e-01,
          5.51345766e-01, 5.51345766e-01, 1.46268353e-01, 9.35555696e-02,
          4.98389080e-02, 4.02865559e-03, 9.62905735e-02, 4.05006617e-01,
          4.05006617e-01, 4.05006617e-01, 4.05006617e-01, 4.05006617e-01,
          4.05006617e-01, 2.82668978e-01, 2.40300447e-01, 5.23121431e-02,
          2.68393934e-01, 1.82072058e-01, 4.33043331e-01, 4.33043331e-01,
          4.33043331e-01, 4.33043331e-01, 3.69248837e-01, 3.69248837e-01,
          3.69248837e-01, 3.38617563e-01, 2.64488012e-01, 1.79258019e-01,
          3.12790990e-01, 3.69248837e-01, 3.69248837e-01, 1.43313587e-01,
          4.40418750e-01, 4.89920825e-01, 4.89920825e-01, 4.89920825e-01,
          2.43672729e-01, 3.18019502e-02, 0., 1.20169716e-02,
          9.37642083e-02, 0., 8.00579874e-05, 1.63756762e-04,
          2.96982974e-01, 4.73887175e-01, 4.73887175e-01, 4.73887175e-01,
          4.73887175e-01, 4.02164072e-01, 4.02164072e-01, 1.21818431e-01,
          2.68819480e-04, 1.03571318e-01, 4.02164072e-01, 4.02164072e-01,
          4.02164072e-01, 4.02164072e-01, 4.83743012e-01, 4.83743012e-01,
          2.65935332e-01, 1.20638832e-02, 3.21174157e-03, 0.,
          7.98675697e-04, 4.71453398e-01, 4.83743012e-01, 5.44795275e-01,
          5.44795275e-01, 5.44795275e-01, 2.97589153e-01, 4.54647318e-02,
          0., 0., 0., 1.16308004e-01 ]
      - [ 4.51622188e-01, 5.07222593e-01, 5.07222593e-01, 5.07222593e-01,
          1.07719906e-01, 0., 0., 0., 8.68547261e-02, 5.07506549e-01,
          5.07506549e-01, 5.07506549e-01, 2.37886272e-02, 3.34222503e-02,
          1.85392611e-02, 1.65828481e-01, 2.52855830e-02, 4.38266367e-01,
          2.96646804e-01, 4.62568820e-01, 1.93904340e-01, 4.59708460e-03,
          4.16582637e-02, 1.10206060e-01, 4.62568820e-01, 4.62568820e-01,
          4.62568820e-01, 6.68403432e-02, 0., 1.09054670e-02,
          1.64267793e-02, 4.01251048e-01, 2.82982677e-01, 5.11043549e-01,
          5.11043549e-01, 4.76053774e-01, 2.79566962e-02, 3.32309127e-01,
          5.25183856e-01, 5.25183856e-01, 5.25183856e-01, 2.17356592e-01,
          9.35464501e-02, 7.64032593e-03, 6.07682252e-03, 5.10720670e-01,
          5.10720670e-01, 5.10720670e-01, 3.96634430e-01, 1.03275873e-01,
          3.64245176e-02, 2.04793084e-02, 1.87134165e-02, 2.05697671e-01,
          3.63388538e-01, 3.63388538e-01, 1.33642644e-01, 2.32702643e-01,
          3.63388538e-01, 3.63388538e-01, 3.63388538e-01, 3.63388538e-01,
          3.63388538e-01, 1.55465892e-02, 9.64279007e-03, 4.88503650e-02,
          2.38004848e-01, 5.44278145e-01, 5.44278145e-01, 5.44278145e-01,
          2.10032552e-01, 4.86578643e-02, 7.84356743e-02, 6.39820769e-02,
          2.69832373e-01, 3.06616217e-01, 4.67234850e-01, 4.67234850e-01,
          4.67234850e-01, 3.80876392e-01, 1.35174617e-01, 3.52231234e-01,
          3.13762873e-01, 2.96732068e-01, 3.52231234e-01, 3.20015818e-01,
          3.52231234e-01, 2.95363039e-01, 3.52231234e-01, 3.52231234e-01,
          3.50128293e-01, 3.50128293e-01, 3.41722757e-01, 3.50128293e-01,
          3.50128293e-01, 3.50128293e-01, 1.46965101e-01, 3.50128293e-01,
          3.50128293e-01, 1.44765332e-01, 3.42143327e-01, 5.12489498e-01,
          5.12489498e-01, 5.12489498e-01, 2.48165488e-01, 1.09611424e-02,
          1.70434304e-02, 8.32441151e-02, 3.23417544e-01, 1.47288576e-01,
          0., 0., 4.26164538e-01, 4.26164538e-01, 4.26164538e-01,
          3.78134012e-01, 4.26164538e-01, 4.58380371e-01, 4.58380371e-01,
          0., 1.81684583e-01, 1.26408428e-01, 2.77803123e-01,
          2.17785046e-01, 4.37596262e-01, 4.58380371e-01, 4.18690056e-01,
          4.18690056e-01, 4.18690056e-01, 7.96894804e-02, 1.44291997e-01,
          4.00323391e-01, 8.70952904e-02, 3.15590024e-01, 4.18690056e-01,
          4.82671261e-01, 4.82671261e-01, 4.82671261e-01, 4.82671261e-01,
          2.32967213e-01, 1.25365553e-03, 1.45512875e-02, 5.71961375e-03,
          9.36653689e-02 ]
      - [ 5.75667381e-01, 5.75667381e-01, 0., 0., 8.53518397e-03, 0., 0.,
          0., 5.75667381e-01, 5.72295189e-01, 5.72295189e-01,
          1.03027008e-01, 0., 0., 0., 0., 3.32467183e-02, 5.72295189e-01,
          5.27582705e-01, 3.99157494e-01, 1.93351116e-02, 0., 0., 0., 0.,
          5.27582705e-01, 5.27582705e-01, 5.74845850e-01, 0., 0., 0.,
          5.40054031e-02, 0., 0., 5.74845850e-01, 5.74845850e-01,
          4.23278332e-01, 3.95469427e-01, 3.66293371e-01, 1.53363407e-01,
          3.27347577e-01, 8.43206421e-02, 3.29610795e-01, 3.16931933e-01,
          4.23278332e-01, 5.32721221e-01, 5.32721221e-01, 3.10474426e-01,
          2.46030688e-02, 1.07022516e-01, 1.22955970e-01, 1.06786609e-01,
          1.65140316e-01, 5.14635503e-01, 4.66460377e-01, 4.66460377e-01,
          2.58427620e-01, 2.63525937e-02, 1.18641481e-01, 9.41646919e-02,
          1.85950339e-01, 4.66460377e-01, 4.66460377e-01, 1.32796913e-01,
          6.16238341e-02, 1.77138954e-01, 1.65357649e-01, 4.27918583e-01,
          4.27918583e-01, 4.27918583e-01, 4.27918583e-01, 4.27918583e-01,
          2.77814746e-01, 4.02587354e-02, 1.20516233e-01, 3.15874480e-02,
          1.98192582e-01, 1.67061538e-01, 5.27011514e-01, 5.27011514e-01,
          5.27011514e-01, 5.43432891e-01, 2.04260021e-01, 5.49608581e-02,
          2.70643923e-02, 1.17729194e-01, 1.35256633e-01, 5.09687103e-02,
          5.56281388e-01, 5.56281388e-01, 5.20894706e-01, 5.20894706e-01,
          2.20055968e-01, 9.44297668e-03, 8.78810957e-02, 5.29239774e-02,
          7.66136870e-02, 3.40435833e-01, 5.20894706e-01, 4.31534737e-01,
          4.31534737e-01, 4.31534737e-01, 3.65739048e-01, 4.31534737e-01,
          1.63562179e-01, 1.78868726e-01, 8.06008428e-02, 2.27579236e-01,
          5.06973028e-01, 0., 0., 0., 0., 0., 0., 6.07008100e-01,
          6.07008100e-01, 5.75688422e-01, 0., 0., 0., 0., 0., 0.,
          5.75688422e-01, 5.75688422e-01, 5.17101467e-01, 5.17101467e-01,
          2.14105079e-04, 0., 0., 0., 0., 4.38923419e-01, 5.17101467e-01,
          6.12792909e-01, 6.12792909e-01, 1.85425922e-01, 6.90644681e-02,
          4.90976945e-02, 0., 0., 1.34602953e-02, 4.48449343e-01 ]
      - [ 4.09607887e-01, 4.09607887e-01, 4.09607887e-01, 2.84005165e-01,
          4.09607887e-01, 2.63948202e-01, 9.03208554e-03, 8.12763795e-02,
          4.09607887e-01, 5.01836956e-01, 3.61454695e-01, 7.97506794e-02,
          3.34717296e-02, 5.01836956e-01, 2.68091708e-01, 1.89584736e-02,
          1.70600235e-01, 5.01836956e-01, 5.56385279e-01, 5.56385279e-01,
          2.23222360e-01, 0., 0., 0., 0., 1.26182422e-01, 5.56385279e-01,
          5.13651788e-01, 1.24901697e-01, 2.09602267e-02, 0., 0., 0.,
          4.32799965e-01, 5.13651788e-01, 5.13651788e-01, 2.40376696e-01,
          3.71578306e-01, 3.71578306e-01, 3.71578306e-01, 3.71578306e-01,
          3.71578306e-01, 2.88139880e-01, 2.64444500e-01, 3.08543414e-01,
          4.84908104e-01, 4.84908104e-01, 3.06005567e-01, 4.12499644e-02,
          3.23348761e-01, 1.62645623e-01, 2.12431960e-02, 2.50896573e-01,
          4.84908104e-01, 5.23859441e-01, 5.23859441e-01, 3.95314693e-01,
          2.54758522e-02, 0., 3.09337005e-02, 3.80835012e-02,
          1.10236958e-01, 5.23859441e-01, 3.50820333e-01, 1.33060530e-01,
          3.50820333e-01, 3.42440426e-01, 3.50820333e-01, 3.50820333e-01,
          3.50820333e-01, 3.50820333e-01, 3.50820333e-01, 3.12941968e-02,
          1.20651677e-01, 1.99414700e-01, 1.15606055e-01, 4.71169055e-01,
          4.71169055e-01, 4.71169055e-01, 4.71169055e-01, 1.96533650e-01,
          4.15872812e-01, 4.15872812e-01, 2.46866614e-01, 1.15705490e-01,
          2.31966153e-01, 5.43626845e-02, 4.15872812e-01, 4.15872812e-01,
          4.15872812e-01, 4.97954458e-01, 4.97954458e-01, 4.97954458e-01,
          2.78781280e-02, 0., 8.92556552e-03, 1.63282584e-02,
          4.54823263e-02, 4.97954458e-01, 1.81260258e-01, 5.95202923e-01,
          5.95202923e-01, 3.72578204e-01, 2.76887685e-01, 1.25667483e-01,
          9.17731896e-02, 3.60764936e-02, 1.08032577e-01, 1.68980807e-01,
          0., 0., 0., 6.48861155e-02, 2.38630742e-01, 5.49183190e-01,
          5.49183190e-01, 5.49183190e-01, 5.49122334e-01, 2.98793744e-02,
          0., 0., 0., 4.87933494e-03, 2.98318177e-01, 5.49122334e-01,
          5.49122334e-01, 5.71280837e-01, 5.71280837e-01, 1.16135947e-01,
          0., 0., 0., 3.79076577e-03, 4.13294956e-02, 5.71280837e-01,
          5.43908119e-01, 5.43908119e-01, 5.43908119e-01, 0.,
          5.27019752e-03, 0., 0., 8.96110898e-04, 3.27156782e-01 ]
      - [ 1.35371402e-01, 6.47025466e-01, 6.47025466e-01, 3.62612665e-01,
          7.87716582e-02, 0., 0., 0., 1.54266926e-02, 4.94626582e-01,
          4.94626582e-01, 4.94626582e-01, 4.49728593e-03, 1.65413221e-04,
          0., 5.12370700e-03, 1.28029600e-01, 4.94626582e-01,
          4.78229046e-01, 8.45976844e-02, 7.69878691e-03, 0.,
          1.90666571e-04, 0., 5.03009975e-01, 5.03009975e-01,
          5.03009975e-01, 3.34400050e-02, 0., 0., 0., 2.90228650e-02,
          1.35382503e-01, 6.82110608e-01, 6.82110608e-01, 2.05795795e-01,
          1.29533345e-02, 2.09267050e-01, 5.62835097e-01, 5.62835097e-01,
          5.62835097e-01, 0., 0., 0., 8.31298251e-03, 4.08188164e-01,
          4.76079226e-01, 4.76079226e-01, 4.76079226e-01, 1.13512293e-01,
          0., 1.17825316e-02, 1.29786760e-01, 3.44680339e-01,
          2.31106058e-01, 1.52947888e-01, 4.22103368e-02, 2.51434557e-02,
          5.73822036e-02, 1.61861360e-01, 5.89184225e-01, 5.89184225e-01,
          4.37186331e-01, 5.86259039e-03, 1.75233800e-02, 4.64585982e-02,
          7.04479963e-02, 4.32635397e-01, 5.71311057e-01, 5.71311057e-01,
          3.80248547e-01, 4.77215573e-02, 5.59087517e-03, 5.60047179e-02,
          7.06467256e-02, 5.27896702e-01, 5.27896702e-01, 5.27896702e-01,
          3.85503113e-01, 4.39530946e-02, 0., 3.67149234e-01,
          3.67149234e-01, 7.18643665e-02, 3.67149234e-01, 2.41627127e-01,
          3.67149234e-01, 3.52125525e-01, 3.67149234e-01, 3.67149234e-01,
          5.00915468e-01, 4.43331152e-01, 1.49847120e-01, 5.83401434e-02,
          4.89785857e-02, 5.77215590e-02, 1.18816555e-01, 5.00915468e-01,
          5.00915468e-01, 3.90961468e-01, 3.90961468e-01, 3.90961468e-01,
          3.90961468e-01, 3.90961468e-01, 3.90961468e-01, 2.58991092e-01,
          1.79012995e-02, 1.07667267e-01, 1.29601464e-01, 1.19165815e-01,
          1.20649278e-01, 1.36742771e-01, 3.15702260e-01, 4.55940247e-01,
          4.55940247e-01, 4.55940247e-01, 4.55940247e-01, 3.77338141e-01,
          9.18289647e-02, 1.43360183e-01, 3.71386558e-01, 3.77338141e-01,
          3.77338141e-01, 3.42632800e-01, 3.77338141e-01, 3.77338141e-01,
          6.74458802e-01, 1.62323013e-01, 8.79933313e-03, 0.,
          9.99375945e-04, 0., 1.35797402e-02, 2.38465667e-01,
          6.74458802e-01, 4.94113445e-01, 4.94113445e-01, 4.94113445e-01,
          9.96900201e-02, 9.22562927e-02, 0., 0., 4.82376618e-03,
          4.94113445e-01 ]
      - [ 4.77261156e-01, 4.77261156e-01, 4.77261156e-01, 4.77261156e-01,
          2.86256582e-01, 0., 0., 0., 4.66630235e-02, 4.89469498e-01,
          4.89469498e-01, 4.89469498e-01, 1.65748656e-01, 7.91091099e-02,
          0., 0., 5.53072989e-02, 4.89469498e-01, 4.97151345e-01,
          7.71879554e-02, 2.00472381e-02, 1.32564094e-03, 0.,
          5.95032843e-03, 4.97151345e-01, 4.97151345e-01, 4.97151345e-01,
          1.07781021e-02, 4.25645662e-03, 0., 0., 1.04520567e-01,
          4.16204929e-01, 6.03672147e-01, 6.03672147e-01, 2.84336269e-01,
          6.53126165e-02, 4.71576005e-01, 5.38278937e-01, 5.38278937e-01,
          3.91316146e-01, 1.86199546e-01, 0., 0., 2.62226686e-02,
          3.62141907e-01, 5.06151795e-01, 5.06151795e-01, 5.03003240e-01,
          1.50902838e-01, 1.83155704e-02, 0., 3.73037420e-02,
          2.71860510e-01, 3.73048514e-01, 1.36441916e-01, 1.65357336e-01,
          2.33549625e-01, 4.01326001e-01, 3.34769249e-01, 4.01326001e-01,
          4.01326001e-01, 4.01326001e-01, 4.20349231e-03, 5.77255618e-04,
          3.94861847e-02, 2.91823953e-01, 5.26291668e-01, 5.26291668e-01,
          5.26291668e-01, 2.77137101e-01, 1.58700310e-02, 2.37566546e-01,
          2.16611043e-01, 3.72355580e-01, 2.47041747e-01, 3.72355580e-01,
          3.72355580e-01, 3.72355580e-01, 3.72355580e-01, 3.72355580e-01,
          4.72254813e-01, 3.33282113e-01, 2.29208916e-01, 3.17782968e-01,
          9.08510834e-02, 5.07175028e-02, 2.25351438e-01, 4.72254813e-01,
          4.72254813e-01, 4.41383660e-01, 4.41383660e-01, 4.41383660e-01,
          4.41383660e-01, 2.27822721e-01, 3.95247750e-02, 2.88192201e-02,
          6.41537011e-02, 3.97367865e-01, 6.41422793e-02, 4.82326657e-01,
          4.82326657e-01, 4.82326657e-01, 4.82326657e-01, 2.41860002e-01,
          4.44774851e-02, 0., 6.14554016e-03, 3.80193591e-01,
          5.67193469e-03, 0., 0., 6.31688386e-02, 1.13869615e-01,
          5.27004421e-01, 5.27004421e-01, 5.27004421e-01, 6.22447908e-01,
          9.93747860e-02, 1.26330918e-02, 3.05753071e-02, 1.18241264e-02,
          3.00430157e-03, 8.52052942e-02, 4.47798848e-01, 6.22447908e-01,
          5.60941994e-01, 5.60941994e-01, 2.22707406e-01, 2.04006396e-02,
          3.65023920e-03, 0., 7.70869141e-04, 2.00545229e-02,
          5.60941994e-01, 5.36260724e-01, 5.52133143e-01, 5.52133143e-01,
          2.23520905e-01, 1.12429745e-01, 0., 0., 0., 1.86028361e-01 ]
      - [ 2.09572446e-02, 4.08999324e-01, 5.25051355e-01, 5.25051355e-01,
          5.25051355e-01, 0., 0., 0., 0., 4.42267478e-01, 4.42267478e-01,
          4.42267478e-01, 4.20460910e-01, 1.40592456e-01, 0.,
          2.89814118e-02, 1.25644878e-01, 4.42267478e-01, 3.40155274e-01,
          1.37057319e-01, 5.09456173e-02, 1.28255203e-01, 8.77134129e-02,
          1.85726792e-01, 5.16114414e-01, 5.16114414e-01, 5.16114414e-01,
          1.30147394e-03, 0., 0., 0., 2.46457294e-01, 5.54521739e-01,
          5.54521739e-01, 5.54521739e-01, 1.06002189e-01, 2.82639265e-01,
          4.26249534e-01, 4.61766243e-01, 4.61766243e-01, 4.61766243e-01,
          1.84847638e-01, 7.11176470e-02, 2.30328336e-01, 4.30388041e-02,
          2.98465610e-01, 4.62420791e-01, 4.62420791e-01, 4.62420791e-01,
          4.62420791e-01, 6.99572489e-02, 8.89039561e-02, 1.22900143e-01,
          1.51871666e-01, 3.95994671e-02, 5.78177422e-02, 5.28678037e-02,
          1.05434097e-01, 3.73084068e-01, 5.16387403e-01, 5.16387403e-01,
          5.16387403e-01, 1.91991746e-01, 0., 0., 1.90250168e-03,
          7.50170648e-02, 5.26739240e-01, 5.26739240e-01, 5.26739240e-01,
          3.95649374e-01, 1.43984519e-02, 1.05592340e-01, 8.17160085e-02,
          4.60379034e-01, 4.60379034e-01, 4.60379034e-01, 3.15266252e-01,
          4.60379034e-01, 1.61509886e-01, 6.55794144e-02, 2.04819798e-01,
          1.15634754e-01, 3.75047773e-01, 3.75047773e-01, 3.75047773e-01,
          3.75047773e-01, 3.75047773e-01, 3.75047773e-01, 3.11392993e-01,
          8.84581283e-02, 4.86795187e-01, 4.86795187e-01, 4.86795187e-01,
          4.86795187e-01, 1.40450507e-01, 1.06936947e-01, 3.58956903e-02,
          8.35736468e-02, 0., 1.62023395e-01, 5.56003034e-01,
          5.56003034e-01, 5.56003034e-01, 1.59860358e-01, 1.20067559e-01,
          2.30085663e-02, 1.66452844e-02, 1.46671366e-02, 3.55555140e-03,
          8.20267797e-02, 5.84905185e-02, 4.97461408e-01, 4.88718241e-01,
          4.97461408e-01, 4.97461408e-01, 5.83539344e-02, 4.66820866e-01,
          2.18434423e-01, 7.05344528e-02, 1.73581801e-02, 6.70285746e-02,
          2.57230639e-01, 4.66820866e-01, 4.66820866e-01, 4.66820866e-01,
          5.15038908e-01, 5.15038908e-01, 5.15038908e-01, 2.13825002e-01,
          3.92832346e-02, 0., 1.94924697e-02, 1.23924442e-01,
          3.68862361e-01, 2.34160889e-02, 5.35985529e-01, 5.35985529e-01,
          5.35985529e-01, 3.63666385e-01, 0., 0., 0., 2.09529651e-03 ]
      - [ 6.46743536e-01, 6.46743536e-01, 2.76739094e-02, 0., 0., 0., 0.,
          0., 3.95250291e-01, 5.68990171e-01, 5.68990171e-01,
          1.51884139e-01, 0., 0., 0., 0., 0., 5.68990171e-01,
          5.06464779e-01, 5.06464779e-01, 3.49844433e-02, 2.33124122e-02,
          0., 2.59040110e-02, 9.56510603e-02, 4.62422580e-01,
          5.06464779e-01, 4.95594800e-01, 2.57440493e-03, 1.85436457e-02,
          1.95220616e-02, 2.24664714e-03, 1.08889379e-01, 4.95594800e-01,
          4.95594800e-01, 4.95594800e-01, 4.40750360e-01, 4.40750360e-01,
          4.40750360e-01, 3.23162645e-01, 4.19206440e-01, 2.39505753e-01,
          7.91591629e-02, 2.50158548e-01, 8.02371427e-02, 5.60446739e-01,
          5.60446739e-01, 1.83325812e-01, 1.36633143e-02, 1.24698430e-02,
          2.20768899e-02, 6.60351245e-03, 1.32740736e-01, 5.60446739e-01,
          4.54813540e-01, 4.54813540e-01, 1.27630368e-01, 5.93223833e-02,
          2.26889551e-02, 8.19099173e-02, 3.75503480e-01, 4.54813540e-01,
          4.54813540e-01, 6.29473105e-02, 9.41755846e-02, 2.81974494e-01,
          1.81237176e-01, 4.44470882e-01, 4.44470882e-01, 4.44470882e-01,
          4.44470882e-01, 2.83116192e-01, 1.89737588e-01, 2.16622055e-01,
          1.03530355e-01, 5.88431768e-02, 4.01764780e-01, 4.29298878e-01,
          4.29298878e-01, 4.29298878e-01, 4.29298878e-01, 5.57147324e-01,
          2.19416082e-01, 7.93346576e-03, 2.27612024e-03, 1.70531776e-02,
          2.99827233e-02, 1.17454343e-01, 5.57147324e-01, 5.57147324e-01,
          5.54433465e-01, 5.54433465e-01, 2.42782533e-01, 3.58001776e-02,
          3.19164619e-02, 5.31074181e-02, 6.65288344e-02, 6.15135916e-02,
          5.54433465e-01, 4.22935694e-01, 4.22935694e-01, 4.22935694e-01,
          4.22935694e-01, 4.22935694e-01, 1.35291740e-01, 1.93173856e-01,
          1.40413702e-01, 1.61449939e-01, 5.60639560e-01, 1.60950422e-02,
          8.11571605e-04, 0., 2.89749951e-05, 4.57622595e-02,
          2.21579731e-01, 5.60639560e-01, 5.60639560e-01, 5.74901044e-01,
          3.70355994e-02, 1.09782885e-03, 0., 0., 0., 3.67799252e-02,
          5.74901044e-01, 5.74901044e-01, 6.02873921e-01, 5.16480446e-01,
          7.69959437e-03, 0., 0., 1.29128601e-02, 3.72247421e-04,
          9.40347183e-03, 6.02873921e-01, 5.12195170e-01, 5.12195170e-01,
          4.48052615e-01, 7.46543705e-02, 3.71882617e-02, 9.53595527e-03,
          2.74899212e-04, 7.38644367e-03, 5.12195170e-01 ]
      - [ 1.49277300e-01, 5.62710464e-01, 5.62710464e-01, 3.11568528e-01,
          4.91501540e-01, 0., 0., 0., 1.27416654e-02, 5.58068156e-01,
          5.58068156e-01, 5.58068156e-01, 4.40973192e-02, 2.30827723e-02,
          0., 1.25050470e-02, 1.25543624e-01, 2.04235271e-01,
          4.12117869e-01, 3.25194955e-01, 1.83869779e-01, 0.,
          8.43651742e-02, 4.12117869e-01, 4.12117869e-01, 4.12117869e-01,
          4.12117869e-01, 1.04017602e-02, 0., 0., 0., 4.98179585e-01,
          4.98179585e-01, 4.98179585e-01, 4.98179585e-01, 4.67401333e-02,
          4.96175699e-03, 1.37376189e-01, 4.96500939e-01, 3.84756982e-01,
          4.96500939e-01, 2.77980536e-01, 4.96500939e-01, 9.74990129e-02,
          4.22822125e-02, 4.23940532e-02, 4.36003774e-01, 4.36003774e-01,
          1.90956190e-01, 4.36003774e-01, 4.36003774e-01, 4.36003774e-01,
          6.88298792e-02, 4.63573262e-02, 5.60865179e-02, 1.26042947e-01,
          1.36501297e-01, 4.71432507e-01, 4.71432507e-01, 4.71432507e-01,
          4.71432507e-01, 2.61801839e-01, 9.56447329e-03, 0., 0.,
          3.57225351e-02, 5.48980594e-01, 5.85990191e-01, 4.98243332e-01,
          3.14411968e-01, 3.17352340e-02, 0., 1.44760050e-02, 0., 0.,
          1.87082291e-02, 5.54591417e-01, 5.54591417e-01, 5.54591417e-01,
          2.64772058e-01, 3.29085849e-02, 2.84918807e-02, 5.24076112e-02,
          8.59704986e-02, 7.34438673e-02, 5.69078624e-01, 5.69078624e-01,
          5.69078624e-01, 7.86157921e-02, 1.55629590e-02, 6.84666820e-03,
          1.79570824e-01, 5.57033956e-01, 5.57033956e-01, 5.57033956e-01,
          1.67963296e-01, 5.43063246e-02, 1.11171287e-02, 0., 0.,
          5.47223873e-02, 5.74811518e-01, 5.74811518e-01, 5.74811518e-01,
          6.28270535e-03, 1.19795720e-03, 0., 0., 0., 0., 0., 0.,
          5.75688422e-01, 5.75688422e-01, 5.75688422e-01, 0., 0.,
          2.57202417e-01, 4.32853222e-01, 2.29224876e-01, 3.52830365e-02,
          2.75216222e-01, 4.32853222e-01, 4.32853222e-01, 4.32853222e-01,
          2.24816799e-01, 2.15893358e-01, 5.31700790e-01, 5.31700790e-01,
          5.31700790e-01, 1.56067207e-01, 9.17262211e-02, 1.65575504e-01,
          1.42728552e-01, 1.39303461e-01, 0., 1.58470333e-01,
          5.68118632e-01, 5.68118632e-01, 5.68118632e-01, 3.00801210e-02,
          5.73553843e-03, 0., 0. ]
      - [ 1.26295179e-01, 5.68313777e-01, 5.68313777e-01, 5.68313777e-01,
          9.63423848e-02, 0., 0., 0., 1.22851962e-02, 5.62252879e-01,
          5.62252879e-01, 5.62252879e-01, 1.56695858e-01, 1.44613988e-03,
          0., 0., 0., 1.46440908e-01, 4.31731790e-01, 4.31731790e-01,
          2.26244628e-01, 1.06322095e-02, 5.94022721e-02, 9.43248421e-02,
          4.31731790e-01, 4.31731790e-01, 4.31731790e-01, 9.81304888e-03,
          0., 0., 0., 1.99399129e-01, 5.58241963e-01, 5.58241963e-01,
          5.58241963e-01, 1.40238643e-01, 1.66736171e-02, 2.64154136e-01,
          6.03633583e-01, 6.03633583e-01, 4.41003889e-01, 2.09278092e-02,
          1.56837609e-02, 0., 1.36696221e-03, 7.65299946e-02,
          4.23143715e-01, 4.23143715e-01, 4.23143715e-01, 3.86012942e-01,
          4.23143715e-01, 2.31205374e-01, 2.66125143e-01, 2.07173470e-02,
          1.33902341e-01, 2.81904519e-01, 2.96268255e-01, 3.91704440e-01,
          3.91704440e-01, 3.50198597e-01, 3.91704440e-01, 3.81971329e-01,
          2.86485314e-01, 0., 0., 8.08968842e-02, 4.87889916e-01,
          4.87889916e-01, 4.87889916e-01, 4.87889916e-01, 1.90515444e-01,
          1.18486537e-02, 9.21432823e-02, 9.26509127e-02, 3.70973498e-01,
          4.56629246e-01, 4.56629246e-01, 4.56629246e-01, 4.56629246e-01,
          7.09967092e-02, 4.07608375e-02, 3.81822288e-02, 1.06842004e-01,
          1.60284892e-01, 1.72520548e-01, 5.08438528e-01, 5.08438528e-01,
          5.08438528e-01, 3.82277668e-01, 7.02063665e-02, 6.53982237e-02,
          1.56655133e-01, 4.27169383e-01, 4.27169383e-01, 4.27169383e-01,
          2.26090342e-01, 4.27169383e-01, 3.55071336e-01, 2.44597405e-01,
          2.78840004e-03, 1.43950311e-02, 5.75104535e-01, 5.75104535e-01,
          5.75104535e-01, 4.03608233e-02, 1.33293308e-02, 0., 0.,
          3.95676047e-01, 5.03713675e-02, 2.18056694e-01, 8.12654719e-02,
          3.95676047e-01, 3.95676047e-01, 3.95676047e-01, 3.95676047e-01,
          3.95676047e-01, 1.46676555e-01, 1.48740243e-02, 1.38317615e-01,
          4.08653468e-02, 3.60680640e-01, 4.88287657e-01, 4.88287657e-01,
          4.88287657e-01, 3.27446520e-01, 3.75574082e-01, 3.75574082e-01,
          3.75574082e-01, 3.75574082e-01, 6.77291527e-02, 6.53385669e-02,
          3.75574082e-01, 3.75574082e-01, 3.75574082e-01, 1.45785034e-01,
          3.52215052e-01, 5.31843603e-01, 5.31843603e-01, 5.31843603e-01,
          5.15198056e-03, 2.51871836e-03, 0., 2.78268438e-02 ]
      - [ 6.96392417e-01, 6.96392417e-01, 1.15316465e-01, 0., 0., 0., 0.,
          0., 9.91237387e-02, 6.86120927e-01, 6.86120927e-01,
          1.38040408e-01, 0., 0., 0., 0., 7.60975119e-04, 1.80474594e-01,
          5.33340335e-01, 5.33340335e-01, 2.26718429e-02, 0.,
          2.72549456e-03, 3.26054208e-02, 2.11049318e-01, 3.08531344e-01,
          5.33340335e-01, 3.27278227e-01, 4.61571105e-03, 0., 0.,
          1.11109532e-01, 2.73613542e-01, 5.16558826e-01, 5.16558826e-01,
          5.16558826e-01, 2.47267067e-01, 5.78736484e-01, 5.78736484e-01,
          1.24058343e-01, 4.41239238e-01, 1.22379668e-01, 1.29067123e-01,
          1.14026077e-01, 9.21331123e-02, 3.63622576e-01, 6.17447853e-01,
          6.17447853e-01, 1.73941582e-01, 2.26323053e-01, 7.04276562e-02,
          1.20094186e-03, 3.98283079e-02, 1.05377793e-01, 4.73842859e-01,
          4.73842859e-01, 2.78925508e-01, 1.19150028e-01, 2.00901225e-01,
          2.04553962e-01, 3.66819412e-01, 2.39460930e-01, 4.24399972e-01,
          1.49817854e-01, 3.65097001e-02, 1.85845674e-05, 2.98022449e-01,
          5.02642095e-01, 5.02642095e-01, 5.02642095e-01, 3.32568794e-01,
          1.17621996e-01, 7.32162222e-02, 1.75252959e-01, 1.73472971e-01,
          3.15787792e-02, 4.30936426e-01, 4.30936426e-01, 4.30936426e-01,
          4.30936426e-01, 4.30936426e-01, 5.13565950e-02, 3.05611551e-01,
          3.10601741e-01, 1.80302337e-01, 4.47848171e-01, 4.47848171e-01,
          4.47848171e-01, 3.81839484e-01, 1.51667163e-01, 2.93509036e-01,
          4.25777167e-01, 4.25777167e-01, 4.25777167e-01, 4.25777167e-01,
          3.47429365e-01, 1.54621944e-01, 1.67350277e-01, 1.08780369e-01,
          4.22723591e-03, 1.09153628e-01, 5.66802204e-01, 5.66802204e-01,
          5.66802204e-01, 1.28776193e-01, 4.48831394e-02, 2.57614825e-04,
          3.95584153e-03, 6.81345612e-02, 0., 0., 0., 1.05157703e-01,
          5.11374831e-01, 5.11374831e-01, 5.11374831e-01, 4.41225260e-01,
          1.02178343e-01, 5.15322248e-03, 0., 0., 8.08620453e-02,
          5.03389716e-01, 5.03389716e-01, 5.03389716e-01, 4.66651231e-01,
          4.18716282e-01, 4.18716282e-01, 4.18716282e-01, 1.17442101e-01,
          2.14674976e-02, 5.75498678e-02, 3.18802565e-01, 4.18716282e-01,
          4.18716282e-01, 1.00693852e-01, 5.66924274e-01, 5.66924274e-01,
          5.66924274e-01, 1.41254485e-01, 0., 0., 0., 6.11075573e-03 ]
      - [ 4.40633208e-01, 4.40633208e-01, 4.40633208e-01, 4.40633208e-01,
          1.54262155e-01, 0., 0., 3.18352282e-02, 4.40633208e-01,
          5.22771776e-01, 5.22771776e-01, 1.48010880e-01, 2.16460928e-01,
          1.12188630e-01, 8.20768476e-02, 0., 2.94657201e-01,
          5.22771776e-01, 3.59829873e-01, 3.59829873e-01, 3.59829873e-01,
          2.24898472e-01, 2.45683968e-01, 3.29544723e-01, 3.59829873e-01,
          3.59829873e-01, 3.59829873e-01, 2.71866888e-01, 2.38490123e-02,
          3.25665027e-02, 0., 2.39665791e-01, 4.85101551e-01,
          4.85101551e-01, 4.85101551e-01, 3.95226181e-01, 2.96610504e-01,
          4.14533377e-01, 4.14533377e-01, 4.14533377e-01, 4.14533377e-01,
          4.14533377e-01, 2.06457868e-01, 1.41988378e-02, 7.65837952e-02,
          3.88245314e-01, 3.88245314e-01, 3.18544716e-01, 3.54490846e-01,
          3.88245314e-01, 3.19526374e-01, 2.15076029e-01, 1.33020446e-01,
          3.88245314e-01, 3.44377369e-01, 3.44377369e-01, 3.44377369e-01,
          3.44377369e-01, 3.44377369e-01, 3.44377369e-01, 3.44377369e-01,
          2.18616143e-01, 3.44377369e-01, 1.89448223e-02, 3.34139401e-03,
          8.76348242e-02, 4.93849665e-01, 4.93849665e-01, 4.93849665e-01,
          4.93849665e-01, 1.04048684e-01, 2.53303554e-02, 3.69367423e-03,
          8.82115623e-04, 1.67275835e-02, 5.03224283e-02, 4.85907435e-01,
          5.01754582e-01, 5.01754582e-01, 5.01754582e-01, 2.79880315e-02,
          4.48101044e-01, 1.35474382e-02, 1.54912332e-02, 1.73305869e-02,
          1.10173620e-01, 4.23655361e-01, 4.48101044e-01, 4.48101044e-01,
          4.48101044e-01, 4.57879305e-01, 4.57879305e-01, 4.57879305e-01,
          3.81867707e-01, 1.01143286e-01, 2.08881162e-02, 3.73618561e-03,
          1.75899640e-02, 4.57879305e-01, 1.57321945e-01, 4.90126997e-01,
          4.90126997e-01, 4.90126997e-01, 4.90126997e-01, 9.71421152e-02,
          4.48128954e-03, 0., 1.60880038e-04, 3.04982737e-02, 0., 0., 0.,
          1.22163929e-02, 2.71028668e-01, 6.17534101e-01, 6.17534101e-01,
          3.95729214e-01, 5.17994583e-01, 1.28726801e-02, 0., 0.,
          9.35849268e-03, 3.93694825e-02, 4.33668345e-01, 5.17994583e-01,
          5.17994583e-01, 5.68808019e-01, 5.68808019e-01, 1.51980400e-01,
          8.67295451e-03, 2.41293642e-03, 1.91812578e-03, 0.,
          2.25740708e-02, 5.68808019e-01, 5.07817328e-01, 5.07817328e-01,
          5.07817328e-01, 4.44723278e-01, 1.46178856e-01, 0., 0., 0.,
          4.63254377e-02 ]
      - [ 5.37235558e-01, 5.37235558e-01, 5.37235558e-01, 2.38518715e-01,
          0., 0., 0., 0., 2.68099725e-01, 5.71744442e-01, 5.71744442e-01,
          1.14977211e-01, 4.85352939e-03, 3.29454662e-03, 2.25625862e-03,
          0., 1.88761558e-02, 5.71744442e-01, 5.26727140e-01,
          5.18978238e-02, 0., 0., 1.69451963e-02, 1.16048586e-02,
          3.99123996e-01, 5.26727140e-01, 5.26727140e-01, 1.65351212e-01,
          0., 0., 0., 0., 0., 5.67741036e-01, 5.67741036e-01,
          5.67741036e-01, 2.53330171e-01, 5.03201008e-01, 5.03201008e-01,
          4.98488039e-01, 3.93113971e-01, 1.21073678e-01, 6.32541850e-02,
          4.99900803e-02, 1.37045458e-02, 5.65148771e-01, 5.65148771e-01,
          2.99153209e-01, 9.11024287e-02, 8.60775411e-02, 1.43012190e-02,
          3.57587673e-02, 1.17483653e-01, 4.84853566e-01, 4.34510767e-01,
          3.09839040e-01, 1.42533317e-01, 4.70915399e-02, 2.80790687e-01,
          2.07567215e-01, 4.34510767e-01, 4.34510767e-01, 4.34510767e-01,
          1.15506630e-02, 5.62403118e-03, 7.41450340e-02, 1.79873645e-01,
          4.40733284e-01, 4.40733284e-01, 4.40733284e-01, 4.40733284e-01,
          4.24967349e-01, 1.68176129e-01, 2.02250376e-01, 2.95304328e-01,
          2.96453565e-01, 3.87775242e-01, 3.87775242e-01, 3.87775242e-01,
          3.87775242e-01, 3.87775242e-01, 4.78570670e-01, 4.78570670e-01,
          3.32668871e-02, 8.09444264e-02, 9.93347391e-02, 2.05314476e-02,
          2.47291088e-01, 4.78570670e-01, 4.78570670e-01, 5.01247764e-01,
          5.01247764e-01, 3.23467672e-01, 3.91517654e-02, 2.70727575e-01,
          1.17087729e-01, 1.24625675e-01, 1.80408955e-01, 5.01247764e-01,
          3.90225530e-01, 3.90225530e-01, 3.90225530e-01, 3.90225530e-01,
          3.90225530e-01, 3.90225530e-01, 2.66189069e-01, 4.23609205e-02,
          9.89679843e-02, 5.16966045e-01, 0., 0., 0., 6.89987913e-02,
          2.93220151e-02, 4.03564811e-01, 5.28668821e-01, 5.28668821e-01,
          5.60544133e-01, 2.11570516e-01, 0., 0., 0., 0., 8.37329775e-02,
          5.60544133e-01, 5.60544133e-01, 5.69665790e-01, 5.69665790e-01,
          2.43872683e-03, 0., 0., 0., 0., 1.44042611e-01, 5.69665790e-01,
          5.78795671e-01, 5.78795671e-01, 4.18982446e-01, 1.07856549e-01,
          8.68104473e-02, 0., 0., 2.01373338e-03, 3.59850228e-01 ]
      - [ 1.48694187e-01, 6.04590952e-01, 6.04590952e-01, 4.78258669e-01,
          1.07035398e-01, 1.23344949e-02, 2.55580549e-03, 3.73707991e-03,
          2.07906011e-02, 4.99431103e-01, 4.99431103e-01, 4.95243132e-01,
          2.00521909e-02, 0., 5.56465052e-03, 1.15303986e-03,
          3.18980180e-02, 4.99431103e-01, 5.21431863e-01, 7.35998452e-02,
          5.64117590e-03, 1.64261274e-03, 2.52896850e-03, 5.35796396e-02,
          4.13267702e-01, 5.21431863e-01, 5.21431863e-01, 4.14941795e-02,
          0., 0., 0., 1.96430981e-01, 5.17728448e-01, 5.17728448e-01,
          5.17728448e-01, 3.87807131e-01, 1.01247674e-03, 2.66170919e-01,
          4.59634453e-01, 4.59634453e-01, 4.59634453e-01, 4.45140511e-01,
          3.04149866e-01, 1.05500268e-02, 9.89589607e-04, 4.09263909e-01,
          4.09263909e-01, 4.09263909e-01, 4.09263909e-01, 3.59819829e-01,
          3.93789589e-01, 1.29499018e-01, 7.79426098e-02, 1.36155367e-01,
          3.59412313e-01, 1.71840817e-01, 2.50278294e-01, 3.59412313e-01,
          3.59412313e-01, 3.59412313e-01, 3.59412313e-01, 3.59412313e-01,
          3.59412313e-01, 1.83204212e-03, 0., 4.45583723e-02,
          4.90072548e-01, 4.90072548e-01, 4.90072548e-01, 4.90072548e-01,
          1.76316425e-01, 3.66705470e-02, 0., 6.44146930e-04,
          3.26204598e-02, 1.65217057e-01, 5.63265502e-01, 5.63265502e-01,
          5.63265502e-01, 1.19205803e-01, 0., 1.31614849e-01,
          2.50280261e-01, 2.92933375e-01, 1.97778836e-01, 4.57334995e-01,
          4.57334995e-01, 4.57334995e-01, 3.47700089e-01, 2.05381766e-01,
          3.49098712e-01, 4.99152184e-01, 4.99152184e-01, 4.99152184e-01,
          3.29579502e-01, 9.37481672e-02, 2.77125221e-02, 3.18780504e-02,
          8.05644244e-02, 4.34424311e-01, 1.81983411e-01, 5.05343258e-01,
          5.05343258e-01, 5.05343258e-01, 7.59475306e-02, 4.52944124e-03,
          1.31764833e-03, 3.47118117e-02, 1.02457898e-02, 0.,
          4.95789535e-02, 9.45936609e-03, 4.50934470e-01, 4.75081027e-01,
          4.75081027e-01, 4.75081027e-01, 3.34894717e-01, 4.59807158e-01,
          2.27270648e-01, 1.90177038e-01, 1.66283716e-02, 1.39565662e-01,
          2.05286160e-01, 4.59807158e-01, 4.59807158e-01, 4.59807158e-01,
          5.16436756e-01, 5.16436756e-01, 5.16436756e-01, 8.61328468e-02,
          1.66308153e-02, 9.12067760e-03, 6.81602210e-02, 1.69167131e-01,
          3.92020017e-01, 4.60506260e-01, 4.60506260e-01, 4.60506260e-01,
          2.65047461e-01, 4.60506260e-01, 8.74166656e-03, 0., 0.,
          2.77145743e-01 ]
      - [ 6.74821496e-01, 6.74821496e-01, 2.70118207e-01, 0., 0., 0., 0.,
          0., 9.76284146e-02, 5.74338555e-01, 5.74338555e-01,
          6.60216063e-02, 0., 0., 0., 0., 1.76545903e-02, 5.74338555e-01,
          6.46197200e-01, 1.28878625e-02, 0., 0., 0., 0., 2.27254871e-02,
          3.97145092e-01, 6.46197200e-01, 4.20471370e-01, 0., 0., 0.,
          1.84420049e-02, 2.70329118e-02, 5.21830559e-01, 5.21830559e-01,
          5.21830559e-01, 2.11440325e-01, 5.94202936e-01, 5.94202936e-01,
          3.54490906e-01, 3.29529285e-01, 7.43411109e-02, 3.00759653e-04,
          4.33946550e-02, 3.92732807e-02, 4.75491524e-01, 4.75491524e-01,
          4.19073969e-01, 1.28197834e-01, 9.21352059e-02, 2.72200733e-01,
          9.69990194e-02, 1.81453735e-01, 4.75491524e-01, 5.50001085e-01,
          7.90835842e-02, 1.35170683e-01, 4.68499288e-02, 1.38810828e-01,
          1.55535698e-01, 1.29707605e-01, 5.50001085e-01, 5.50001085e-01,
          2.97803879e-02, 3.76609783e-03, 2.04749584e-01, 3.08239073e-01,
          4.18061256e-01, 4.18061256e-01, 4.18061256e-01, 4.18061256e-01,
          3.98607820e-01, 2.89714932e-01, 3.53506595e-01, 3.53506595e-01,
          3.53506595e-01, 3.53506595e-01, 1.94331810e-01, 3.53506595e-01,
          3.53506595e-01, 3.53506595e-01, 2.24356145e-01, 2.89691895e-01,
          1.58724695e-01, 1.85745403e-01, 1.49751231e-01, 2.81211436e-01,
          5.06497979e-01, 5.06497979e-01, 4.31745291e-01, 4.02763098e-01,
          4.02763098e-01, 4.02763098e-01, 1.97109640e-01, 1.52801946e-01,
          1.05081879e-01, 3.34130287e-01, 4.02763098e-01, 4.02763098e-01,
          5.75537793e-02, 4.16365117e-01, 5.06038964e-01, 5.06038964e-01,
          5.06038964e-01, 1.69367090e-01, 1.31434157e-01, 5.98312691e-02,
          2.25264896e-02, 4.27929968e-01, 3.45559716e-01, 3.17411840e-01,
          1.34814188e-01, 9.36955437e-02, 1.65902928e-01, 4.14383650e-01,
          4.27929968e-01, 4.27929968e-01, 3.12306881e-01, 8.54243338e-02,
          4.68763337e-02, 3.61949913e-02, 1.26052927e-02, 0.,
          5.43468356e-01, 5.43468356e-01, 5.43468356e-01, 4.99813944e-01,
          4.99813944e-01, 1.79679677e-01, 8.97757616e-03, 5.10846148e-04,
          0., 1.28057152e-01, 4.43623543e-01, 4.99813944e-01,
          5.32352984e-01, 5.32352984e-01, 5.32352984e-01, 3.40563804e-01,
          1.45325601e-01, 0., 0., 1.08895367e-02, 8.52212906e-02 ]
      - [ 3.70943815e-01, 6.53875113e-01, 6.53875113e-01, 0.,
          5.19456901e-03, 0., 0., 1.37077551e-03, 2.71750707e-02,
          6.05255306e-01, 6.05255306e-01, 4.87319142e-01, 0., 0., 0., 0.,
          1.87810250e-02, 1.53153777e-01, 4.45222110e-01, 4.45222110e-01,
          6.25153482e-02, 7.56572059e-04, 1.92230582e-04, 2.30287723e-02,
          4.45222110e-01, 4.45222110e-01, 4.45222110e-01, 6.88026696e-02,
          0., 0., 5.59107866e-03, 4.08361495e-01, 4.81105059e-01,
          4.81105059e-01, 4.81105059e-01, 3.59561384e-01, 3.68646443e-01,
          4.59819883e-01, 4.59819883e-01, 4.44123566e-01, 4.17312980e-01,
          1.63073197e-01, 7.72655830e-02, 2.13033687e-02, 1.79515332e-01,
          5.18215179e-01, 5.18215179e-01, 5.18215179e-01, 1.49561346e-01,
          3.77300560e-01, 1.41395196e-01, 0., 8.91047902e-03,
          6.62368089e-02, 3.85874838e-01, 3.85874838e-01, 1.52016416e-01,
          2.66723726e-02, 3.43597978e-01, 3.85874838e-01, 3.85874838e-01,
          3.85874838e-01, 3.31312418e-01, 3.96681513e-04, 0.,
          7.16057373e-03, 6.48062602e-02, 5.71214974e-01, 5.71214974e-01,
          5.71214974e-01, 1.03158757e-01, 2.33126003e-02, 3.45571607e-01,
          1.48089439e-01, 1.23528883e-01, 1.45081833e-01, 4.48779672e-01,
          4.48779672e-01, 4.48779672e-01, 1.10661760e-01, 4.48779672e-01,
          1.05130881e-01, 9.81492624e-02, 7.83486441e-02, 6.33543879e-02,
          4.76617396e-01, 4.76617396e-01, 4.76617396e-01, 4.76617396e-01,
          2.36103520e-01, 4.05682474e-01, 4.05682474e-01, 4.05682474e-01,
          4.05682474e-01, 4.05682474e-01, 1.28996164e-01, 6.03039041e-02,
          1.13616310e-01, 3.73992741e-01, 6.83785230e-03, 6.70099556e-02,
          5.68061292e-01, 5.68061292e-01, 5.68061292e-01, 1.34999856e-01,
          5.90300374e-02, 0., 0., 7.45283160e-03, 5.10567278e-02,
          2.98930537e-02, 0., 5.03541231e-01, 4.65759844e-01,
          5.03541231e-01, 5.03541231e-01, 1.17564641e-01, 4.71964568e-01,
          4.55373488e-02, 2.92648748e-02, 0., 3.87762673e-02,
          1.20858617e-01, 5.01067102e-01, 5.01067102e-01, 5.01067102e-01,
          4.82202977e-01, 4.82202977e-01, 4.82202977e-01, 5.72798513e-02,
          9.53625981e-03, 0., 3.23722996e-02, 2.46343657e-01,
          4.82202977e-01, 9.42997709e-02, 5.36469579e-01, 5.36469579e-01,
          5.36469579e-01, 3.47791880e-01, 0., 0., 0., 3.73118445e-02 ]
      - [ 0., 1.04668476e-01, 5.72517097e-01, 5.72517097e-01,
          5.72517097e-01, 0., 0., 0., 0., 4.08863723e-01, 4.76046532e-01,
          4.76046532e-01, 4.76046532e-01, 1.48284093e-01, 1.57475442e-01,
          1.71944812e-01, 1.80974901e-01, 1.97765246e-01, 3.85349959e-01,
          1.49104312e-01, 1.76410794e-01, 1.14972256e-01, 2.12101042e-01,
          4.52453375e-01, 4.52453375e-01, 4.52453375e-01, 3.48260790e-01,
          0., 0., 0., 0., 5.62052190e-01, 5.62052190e-01, 5.62052190e-01,
          2.16054782e-01, 0., 0., 7.50267282e-02, 5.69766998e-01,
          5.69766998e-01, 5.69766998e-01, 1.21352218e-01, 7.19515001e-03,
          0., 0., 1.31901144e-03, 2.90235907e-01, 4.57968324e-01,
          4.57968324e-01, 4.57968324e-01, 4.57968324e-01, 2.62157023e-01,
          5.45358546e-02, 2.33745165e-02, 1.08450397e-04, 1.64255239e-02,
          1.15823135e-01, 7.30809793e-02, 5.69275081e-01, 5.69275081e-01,
          5.69275081e-01, 4.78029735e-02, 2.79713590e-02, 0.,
          4.64111567e-04, 1.08543299e-02, 0., 6.56455874e-01,
          6.56455874e-01, 3.62565547e-01, 2.41616089e-03, 0.,
          1.97211020e-02, 6.36675814e-03, 8.43390450e-02, 4.65467304e-01,
          4.65467304e-01, 4.65467304e-01, 4.65467304e-01, 3.47396731e-01,
          2.20071115e-02, 4.75171246e-02, 5.39018661e-02, 3.98586273e-01,
          4.39334780e-01, 4.39334780e-01, 4.39334780e-01, 4.39334780e-01,
          2.40709588e-01, 3.96955535e-02, 0., 1.54581994e-01,
          4.75055307e-01, 4.75055307e-01, 4.75055307e-01, 4.75055307e-01,
          2.54848212e-01, 3.46645005e-02, 5.00005595e-02, 0.,
          7.33871460e-02, 3.15306127e-01, 5.40298223e-01, 5.74686229e-01,
          5.15794575e-01, 3.50338854e-02, 0., 0., 2.99934018e-02,
          8.13394599e-03, 0., 1.03896437e-02, 5.15806139e-01,
          5.15806139e-01, 5.15806139e-01, 4.28112864e-01, 1.11023366e-01,
          1.30160645e-01, 3.20419408e-02, 1.36005253e-01, 4.17227410e-02,
          1.45093590e-01, 4.07130510e-01, 5.06598592e-01, 5.06598592e-01,
          5.06598592e-01, 3.07521135e-01, 4.46451873e-01, 4.46451873e-01,
          4.19833243e-01, 2.13930890e-01, 8.09162334e-02, 2.35602453e-01,
          1.41200274e-01, 4.45323259e-01, 4.86552762e-03, 4.32642281e-01,
          5.18842161e-01, 5.18842161e-01, 5.18842161e-01, 0., 0., 0.,
          4.86552762e-03 ]
      - [ 4.43588406e-01, 4.43588406e-01, 4.43588406e-01, 4.43588406e-01,
          4.43588406e-01, 0., 0., 0., 1.08238362e-01, 4.89789575e-01,
          4.89789575e-01, 4.83137101e-01, 7.47221261e-02, 1.22168608e-01,
          1.45240210e-03, 2.23722216e-02, 1.44892395e-01, 4.89789575e-01,
          4.69592780e-01, 3.32093537e-01, 3.04574128e-02, 0.,
          2.02570222e-02, 4.01991010e-02, 4.69592780e-01, 4.69592780e-01,
          4.69592780e-01, 1.38956262e-02, 0., 0., 0., 4.53276992e-01,
          5.55725954e-02, 6.20584190e-01, 6.20584190e-01, 1.21708751e-01,
          2.28457898e-02, 1.80799678e-01, 5.37001014e-01, 4.65991408e-01,
          5.55625975e-01, 3.78159493e-01, 0., 6.31389618e-02,
          3.42860026e-03, 2.15190768e-01, 5.06606519e-01, 5.06606519e-01,
          3.31883401e-01, 5.06606519e-01, 1.80682391e-01, 8.90536048e-03,
          1.59276292e-01, 1.02185160e-01, 2.12687805e-01, 3.69027466e-01,
          2.40066662e-01, 3.69027466e-01, 3.69027466e-01, 3.69027466e-01,
          3.69027466e-01, 3.69027466e-01, 2.76328087e-01, 1.41131575e-04,
          0., 1.72971729e-02, 3.65591884e-01, 5.25992334e-01,
          4.94615555e-01, 5.25992334e-01, 2.50615269e-01, 1.42370863e-03,
          0., 5.61981015e-02, 2.77269334e-02, 1.84271764e-02,
          6.87717259e-01, 6.87717259e-01, 1.17108211e-01, 1.71002716e-01,
          1.33209117e-03, 2.65171677e-01, 3.60698104e-01, 3.60698104e-01,
          3.60698104e-01, 3.60698104e-01, 3.60698104e-01, 3.60698104e-01,
          3.60698104e-01, 1.23928837e-01, 8.40318576e-02, 3.65191042e-01,
          5.80177963e-01, 5.80177963e-01, 4.08747971e-01, 9.05721858e-02,
          4.69782725e-02, 4.05842997e-02, 3.78886349e-02, 0.,
          1.74310580e-01, 5.64547360e-01, 5.64547360e-01, 5.64547360e-01,
          8.03282708e-02, 3.72116119e-02, 0., 0., 1.70407444e-01, 0.,
          1.44060999e-02, 1.04257511e-02, 4.81879562e-01, 4.81879562e-01,
          4.44101125e-01, 4.81879562e-01, 2.68295288e-01, 4.20238256e-01,
          2.14856282e-01, 1.95626765e-01, 2.58975737e-02, 1.66425198e-01,
          4.20238256e-01, 4.20238256e-01, 4.20238256e-01, 4.20238256e-01,
          4.65683848e-01, 4.65683848e-01, 4.65683848e-01, 3.15665781e-01,
          2.61978358e-02, 2.45345873e-03, 6.07284792e-02, 1.54523849e-01,
          4.65683848e-01, 0., 2.20670700e-01, 6.24115467e-01,
          6.24115467e-01, 4.07471210e-01, 0., 0., 0., 0. ]
      - [ 3.91696900e-01, 4.90238488e-01, 4.90238488e-01, 4.90238488e-01,
          3.28185856e-01, 0., 0., 0., 1.13885574e-01, 3.68896395e-01,
          3.68896395e-01, 3.68896395e-01, 3.68896395e-01, 3.68896395e-01,
          1.59174636e-01, 3.68896395e-01, 1.35595128e-01, 3.68896395e-01,
          3.17819118e-01, 2.58562881e-02, 1.79533452e-01, 1.32798687e-01,
          1.99651048e-01, 3.23648572e-01, 4.82709229e-01, 4.82709229e-01,
          4.82709229e-01, 2.88963877e-02, 0., 0., 3.54883447e-02,
          4.79817152e-01, 4.92635548e-01, 4.92635548e-01, 4.92635548e-01,
          1.86256692e-01, 2.83667985e-02, 2.01925501e-01, 4.81379986e-01,
          4.81379986e-01, 4.81379986e-01, 4.81379986e-01, 1.30009696e-01,
          8.16066787e-02, 5.60746975e-02, 6.45619258e-02, 3.31414253e-01,
          4.73327458e-01, 4.73327458e-01, 4.73327458e-01, 3.70189160e-01,
          2.23448947e-01, 8.15251097e-02, 1.24644093e-01, 1.05503887e-01,
          4.97657657e-02, 4.87407967e-02, 4.23951775e-01, 4.28656638e-01,
          4.28656638e-01, 4.28656638e-01, 2.54977196e-01, 4.28656638e-01,
          3.09694908e-03, 0., 2.09305398e-02, 4.97076660e-01,
          4.97076660e-01, 4.97076660e-01, 4.97076660e-01, 7.78055564e-02,
          1.38988504e-02, 2.07393002e-02, 6.07902594e-02, 6.11042827e-02,
          2.74647266e-01, 5.40290296e-01, 5.40290296e-01, 5.40290296e-01,
          1.88344955e-01, 9.97232273e-03, 7.98913091e-02, 1.18523113e-01,
          1.89707428e-01, 4.02303040e-01, 4.30433363e-01, 4.30433363e-01,
          4.30433363e-01, 4.30433363e-01, 1.90635026e-01, 3.87115628e-01,
          3.87115628e-01, 3.87115628e-01, 3.87115628e-01, 3.87115628e-01,
          1.27317771e-01, 8.68826583e-02, 2.77358323e-01, 3.82300794e-01,
          7.59927928e-02, 2.72519916e-01, 5.30720472e-01, 5.30720472e-01,
          5.30720472e-01, 2.63631403e-01, 0., 0., 1.27921337e-02,
          7.45657412e-03, 0., 0., 0., 2.72965372e-01, 5.53722203e-01,
          5.53722203e-01, 5.53722203e-01, 8.94370209e-03, 1.37114301e-01,
          0., 0., 0., 3.27893980e-02, 1.63360998e-01, 5.62086821e-01,
          5.62086821e-01, 5.62086821e-01, 4.04307097e-01, 4.04307097e-01,
          4.04307097e-01, 3.80055308e-01, 1.75114006e-01, 1.36839813e-02,
          5.78429438e-02, 4.04307097e-01, 4.04307097e-01, 2.70858467e-01,
          4.68465120e-01, 5.03423870e-01, 5.03423870e-01, 4.41379786e-01,
          0., 0., 0., 2.14702059e-02 ]
      - [ 1.48768470e-01, 6.88747764e-01, 6.88747764e-01, 1.01981200e-01,
          1.08801484e-01, 0., 0., 0., 2.75013736e-03, 5.28022885e-01,
          5.28022885e-01, 5.28022885e-01, 3.54120702e-01, 1.05369404e-01,
          0., 3.73430625e-02, 2.54323445e-02, 1.40559301e-01,
          4.42240447e-01, 4.42240447e-01, 2.93716062e-02, 3.11038140e-02,
          1.38467941e-02, 1.25209764e-01, 4.42240447e-01, 4.42240447e-01,
          4.42240447e-01, 7.62450788e-03, 0., 0., 0., 3.86689514e-01,
          5.30319095e-01, 5.30319095e-01, 5.30319095e-01, 3.74446101e-02,
          2.27289572e-02, 4.40744966e-01, 4.40744966e-01, 4.40744966e-01,
          4.40744966e-01, 4.40744966e-01, 1.54273257e-01, 0., 0.,
          4.06453043e-01, 4.06453043e-01, 4.06453043e-01, 4.06453043e-01,
          4.06453043e-01, 4.06453043e-01, 6.82752505e-02, 1.61621382e-03,
          7.15398556e-03, 4.09366757e-01, 3.60940665e-01, 4.82555367e-02,
          2.43177354e-01, 4.09366757e-01, 4.09366757e-01, 4.09366757e-01,
          3.61719340e-01, 5.48006855e-02, 4.92091896e-03, 0., 0.,
          1.43864036e-01, 5.63053310e-01, 5.63053310e-01, 5.63053310e-01,
          1.48999125e-01, 1.91920083e-02, 0., 1.67997517e-02,
          9.21626836e-02, 1.38908654e-01, 5.66746891e-01, 5.66746891e-01,
          5.66746891e-01, 5.16003892e-02, 0., 0., 3.26210149e-02,
          1.29419357e-01, 1.41804025e-01, 4.08043742e-01, 6.05596960e-01,
          6.05596960e-01, 2.36720026e-01, 0., 1.55974299e-01,
          3.95798862e-01, 4.47926611e-01, 4.47926611e-01, 4.47926611e-01,
          2.63118446e-01, 3.47799838e-01, 1.24489270e-01, 8.32628757e-02,
