<?xml version="1.0"?>
<opencv_storage>
<opencv_ml_svm>
  <format>3</format>
  <svmType>C_SVC</svmType>
  <kernel>
    <type>RBF</type>
    <gamma>1.5000000000000001e-04</gamma></kernel>
  <C>1.0000000000000001e-01</C>
  <term_criteria><epsilon>1.1920928955078125e-07</epsilon>
    <iterations>1000</iterations></term_criteria>
  <var_count>2</var_count>
  <class_count>2</class_count>
  <class_labels type_id="opencv-matrix">
    <rows>2</rows>
    <cols>1</cols>
    <dt>i</dt>
    <data>
      0 1</data></class_labels>
  <sv_total>46</sv_total>
  <support_vectors>
    <_>
      9. 61.</_>
    <_>
      6. 84.</_>
    <_>
      101. 57.</_>
    <_>
      67. 50.</_>
    <_>
      37. 133.</_>
    <_>
      37. 132.</_>
    <_>
      0. 92.</_>
    <_>
      71. 67.</_>
    <_>
      8. 10.</_>
    <_>
      53. 154.</_>
    <_>
      51. 156.</_>
    <_>
      43. 28.</_>
    <_>
      100. 96.</_>
    <_>
      135. 21.</_>
    <_>
      0. 112.</_>
    <_>
      109. 131.</_>
    <_>
      76. 74.</_>
    <_>
      133. 51.</_>
    <_>
      115. 39.</_>
    <_>
      103. 7.</_>
    <_>
      83. 149.</_>
    <_>
      111. 117.</_>
    <_>
      75. 95.</_>
    <_>
      235. 98.</_>
    <_>
      149. 113.</_>
    <_>
      164. 220.</_>
    <_>
      199. 248.</_>
    <_>
      241. 103.</_>
    <_>
      149. 152.</_>
    <_>
      122. 143.</_>
    <_>
      239. 146.</_>
    <_>
      148. 167.</_>
    <_>
      211. 156.</_>
    <_>
      199. 160.</_>
    <_>
      105. 135.</_>
    <_>
      130. 158.</_>
    <_>
      121. 134.</_>
    <_>
      153. 178.</_>
    <_>
      129. 119.</_>
    <_>
      101. 250.</_>
    <_>
      145. 215.</_>
    <_>
      213. 130.</_>
    <_>
      138. 240.</_>
    <_>
      141. 189.</_>
    <_>
      119. 191.</_>
    <_>
      239. 140.</_></support_vectors>
  <decision_functions>
    <_>
      <sv_count>46</sv_count>
      <rho>-1.0653411934268752e-02</rho>
      <alpha>
        1.0000000000000001e-01 1.0000000000000001e-01
        1.0000000000000001e-01 1.0000000000000001e-01
        1.0000000000000001e-01 1.0000000000000001e-01
        1.0000000000000001e-01 5.1692798294699716e-03
        1.0000000000000001e-01 1.0000000000000001e-01
        1.0000000000000001e-01 1.0000000000000001e-01
        1.0000000000000001e-01 1.0000000000000001e-01
        1.0000000000000001e-01 1.0000000000000001e-01
        1.0000000000000001e-01 1.0000000000000001e-01
        1.0000000000000001e-01 1.0000000000000001e-01
        1.0000000000000001e-01 1.0000000000000001e-01
        1.0000000000000001e-01 -1.0000000000000001e-01
        -1.0000000000000001e-01 -1.0000000000000001e-01
        -1.0000000000000001e-01 -1.0000000000000001e-01
        -1.0000000000000001e-01 -1.0000000000000001e-01
        -1.0000000000000001e-01 -1.0000000000000001e-01
        -1.0000000000000001e-01 -7.5815295505861455e-02
        -1.0000000000000001e-01 -1.0000000000000001e-01
        -1.0000000000000001e-01 -2.9353984323608522e-02
        -1.0000000000000001e-01 -1.0000000000000001e-01
        -1.0000000000000001e-01 -1.0000000000000001e-01
        -1.0000000000000001e-01 -1.0000000000000001e-01
        -1.0000000000000001e-01 -1.0000000000000001e-01</alpha>
      <index>
        0 1 2 3 4 5 6 7 8 9 10 11 12 13 14 15 16 17 18 19 20 21 22 23 24
        25 26 27 28 29 30 31 32 33 34 35 36 37 38 39 40 41 42 43 44 45</index></_></decision_functions></opencv_ml_svm>
</opencv_storage>
