<?xml version="1.0"?>
<opencv_storage>
<opencv_ml_svm>
  <format>3</format>
  <svmType>C_SVC</svmType>
  <kernel>
    <type>RBF</type>
    <gamma>1.</gamma></kernel>
  <C>1.</C>
  <term_criteria><epsilon>1.1920928955078125e-07</epsilon>
    <iterations>1000</iterations></term_criteria>
  <var_count>2</var_count>
  <class_count>2</class_count>
  <class_labels type_id="opencv-matrix">
    <rows>2</rows>
    <cols>1</cols>
    <dt>i</dt>
    <data>
      0 1</data></class_labels>
  <sv_total>25</sv_total>
  <support_vectors>
    <_>
      63. 27.</_>
    <_>
      54. 50.</_>
    <_>
      32. 53.</_>
    <_>
      71. 26.</_>
    <_>
      26. 60.</_>
    <_>
      36. 92.</_>
    <_>
      80. 39.</_>
    <_>
      45. 95.</_>
    <_>
      49. 91.</_>
    <_>
      41. 56.</_>
    <_>
      28. 70.</_>
    <_>
      3. 43.</_>
    <_>
      83. 54.</_>
    <_>
      23. 39.</_>
    <_>
      2. 9.</_>
    <_>
      91. 77.</_>
    <_>
      65. 31.</_>
    <_>
      3. 98.</_>
    <_>
      14. 91.</_>
    <_>
      78. 25.</_>
    <_>
      37. 92.</_>
    <_>
      96. 42.</_>
    <_>
      29. 55.</_>
    <_>
      51. 24.</_>
    <_>
      95. 92.</_></support_vectors>
  <decision_functions>
    <_>
      <sv_count>25</sv_count>
      <rho>-8.3333521379203537e-02</rho>
      <alpha>
        9.1666655619851134e-01 9.1666869921645500e-01
        9.1666643888724386e-01 1. 9.1666643888724408e-01
        9.1666655808791364e-01 9.1666643888724408e-01
        9.1666655808790143e-01 9.1666643888724408e-01
        9.1666643699785322e-01 9.1666643888724408e-01
        9.1666643888724408e-01 9.1666655808790098e-01 -1. -1. -1. -1.
        -1. -1. -1. -1. -1. -1. -1. -1.</alpha>
      <index>
        0 2 3 5 6 8 12 14 15 16 19 21 23 1 4 7 9 10 11 13 17 18 20 22 24</index></_></decision_functions></opencv_ml_svm>
</opencv_storage>
